<?xml version="1.0" encoding="UTF-8" standalone="yes"?>
<PMML xmlns="http://www.dmg.org/PMML-4_4" xmlns:data="http://jpmml.org/jpmml-model/InlineTable" version="4.4">
	<Header>
		<Application name="SkLearn2PMML package" version="0.89.1"/>
		<Timestamp>2022-12-23T17:12:57Z</Timestamp>
	</Header>
	<MiningBuildTask>
		<Extension name="repr">PMMLPipeline(steps=[('classifier', DecisionTreeClassifier())])</Extension>
	</MiningBuildTask>
	<DataDictionary>
		<DataField name="y" optype="categorical" dataType="integer">
			<Value value="0"/>
			<Value value="1"/>
		</DataField>
		<DataField name="x1" optype="continuous" dataType="float"/>
		<DataField name="x2" optype="continuous" dataType="float"/>
		<DataField name="x3" optype="continuous" dataType="float"/>
		<DataField name="x4" optype="continuous" dataType="float"/>
		<DataField name="x5" optype="continuous" dataType="float"/>
		<DataField name="x6" optype="continuous" dataType="float"/>
		<DataField name="x7" optype="continuous" dataType="float"/>
		<DataField name="x8" optype="continuous" dataType="float"/>
		<DataField name="x9" optype="continuous" dataType="float"/>
		<DataField name="x10" optype="continuous" dataType="float"/>
		<DataField name="x11" optype="continuous" dataType="float"/>
		<DataField name="x12" optype="continuous" dataType="float"/>
		<DataField name="x13" optype="continuous" dataType="float"/>
		<DataField name="x14" optype="continuous" dataType="float"/>
	</DataDictionary>
	<TreeModel functionName="classification" algorithmName="sklearn.tree._classes.DecisionTreeClassifier" missingValueStrategy="nullPrediction">
		<MiningSchema>
			<MiningField name="y" usageType="target"/>
			<MiningField name="x8"/>
			<MiningField name="x5"/>
			<MiningField name="x11"/>
			<MiningField name="x12"/>
			<MiningField name="x7"/>
			<MiningField name="x13"/>
			<MiningField name="x4"/>
			<MiningField name="x1"/>
			<MiningField name="x3"/>
			<MiningField name="x14"/>
			<MiningField name="x2"/>
			<MiningField name="x9"/>
			<MiningField name="x6"/>
			<MiningField name="x10"/>
		</MiningSchema>
		<Output>
			<OutputField name="probability(0)" optype="continuous" dataType="double" feature="probability" value="0"/>
			<OutputField name="probability(1)" optype="continuous" dataType="double" feature="probability" value="1"/>
		</Output>
		<LocalTransformations>
			<DerivedField name="double(x8)" optype="continuous" dataType="double">
				<FieldRef field="x8"/>
			</DerivedField>
			<DerivedField name="double(x5)" optype="continuous" dataType="double">
				<FieldRef field="x5"/>
			</DerivedField>
			<DerivedField name="double(x11)" optype="continuous" dataType="double">
				<FieldRef field="x11"/>
			</DerivedField>
			<DerivedField name="double(x12)" optype="continuous" dataType="double">
				<FieldRef field="x12"/>
			</DerivedField>
			<DerivedField name="double(x7)" optype="continuous" dataType="double">
				<FieldRef field="x7"/>
			</DerivedField>
			<DerivedField name="double(x13)" optype="continuous" dataType="double">
				<FieldRef field="x13"/>
			</DerivedField>
			<DerivedField name="double(x4)" optype="continuous" dataType="double">
				<FieldRef field="x4"/>
			</DerivedField>
			<DerivedField name="double(x1)" optype="continuous" dataType="double">
				<FieldRef field="x1"/>
			</DerivedField>
			<DerivedField name="double(x3)" optype="continuous" dataType="double">
				<FieldRef field="x3"/>
			</DerivedField>
			<DerivedField name="double(x14)" optype="continuous" dataType="double">
				<FieldRef field="x14"/>
			</DerivedField>
			<DerivedField name="double(x2)" optype="continuous" dataType="double">
				<FieldRef field="x2"/>
			</DerivedField>
			<DerivedField name="double(x9)" optype="continuous" dataType="double">
				<FieldRef field="x9"/>
			</DerivedField>
			<DerivedField name="double(x6)" optype="continuous" dataType="double">
				<FieldRef field="x6"/>
			</DerivedField>
			<DerivedField name="double(x10)" optype="continuous" dataType="double">
				<FieldRef field="x10"/>
			</DerivedField>
		</LocalTransformations>
		<Node>
			<True/>
			<Node>
				<SimplePredicate field="double(x8)" operator="lessOrEqual" value="-0.5889929234981537"/>
				<Node>
					<SimplePredicate field="double(x5)" operator="lessOrEqual" value="0.9403889775276184"/>
					<Node>
						<SimplePredicate field="double(x11)" operator="lessOrEqual" value="0.5440424978733063"/>
						<Node>
							<SimplePredicate field="double(x5)" operator="lessOrEqual" value="-0.6144094169139862"/>
							<Node>
								<SimplePredicate field="double(x12)" operator="lessOrEqual" value="4.229257106781006"/>
								<Node>
									<SimplePredicate field="double(x7)" operator="lessOrEqual" value="1.1651695370674133"/>
									<Node>
										<SimplePredicate field="double(x13)" operator="lessOrEqual" value="0.7339733242988586"/>
										<Node>
											<SimplePredicate field="double(x4)" operator="lessOrEqual" value="-1.7565504312515259"/>
											<Node>
												<SimplePredicate field="double(x1)" operator="lessOrEqual" value="-0.1526108980178833"/>
												<Node>
													<SimplePredicate field="double(x7)" operator="lessOrEqual" value="-1.1995720267295837"/>
													<Node score="0" recordCount="4">
														<SimplePredicate field="double(x3)" operator="lessOrEqual" value="0.24025606736540794"/>
														<ScoreDistribution value="0" recordCount="4"/>
														<ScoreDistribution value="1" recordCount="0"/>
													</Node>
													<Node score="1" recordCount="1">
														<True/>
														<ScoreDistribution value="0" recordCount="0"/>
														<ScoreDistribution value="1" recordCount="1"/>
													</Node>
												</Node>
												<Node>
													<SimplePredicate field="double(x3)" operator="lessOrEqual" value="-0.25106849521398544"/>
													<Node>
														<SimplePredicate field="double(x3)" operator="lessOrEqual" value="-0.27469274401664734"/>
														<Node score="0" recordCount="38">
															<SimplePredicate field="double(x13)" operator="lessOrEqual" value="0.2885296195745468"/>
															<ScoreDistribution value="0" recordCount="38"/>
															<ScoreDistribution value="1" recordCount="0"/>
														</Node>
														<Node score="0" recordCount="4">
															<SimplePredicate field="double(x1)" operator="lessOrEqual" value="-0.40920494496822357"/>
															<ScoreDistribution value="0" recordCount="4"/>
															<ScoreDistribution value="1" recordCount="0"/>
														</Node>
														<Node score="1" recordCount="1">
															<True/>
															<ScoreDistribution value="0" recordCount="0"/>
															<ScoreDistribution value="1" recordCount="1"/>
														</Node>
													</Node>
													<Node score="1" recordCount="2">
														<True/>
														<ScoreDistribution value="0" recordCount="0"/>
														<ScoreDistribution value="1" recordCount="2"/>
													</Node>
												</Node>
												<Node score="0" recordCount="88">
													<True/>
													<ScoreDistribution value="0" recordCount="88"/>
													<ScoreDistribution value="1" recordCount="0"/>
												</Node>
											</Node>
											<Node>
												<SimplePredicate field="double(x7)" operator="lessOrEqual" value="0.5739841908216476"/>
												<Node>
													<SimplePredicate field="double(x3)" operator="lessOrEqual" value="3.0203514099121094"/>
													<Node>
														<SimplePredicate field="double(x1)" operator="lessOrEqual" value="0.9470778405666351"/>
														<Node>
															<SimplePredicate field="double(x14)" operator="lessOrEqual" value="-0.1557922661304474"/>
															<Node score="0" recordCount="15">
																<SimplePredicate field="double(x7)" operator="lessOrEqual" value="-0.017201226204633713"/>
																<ScoreDistribution value="0" recordCount="15"/>
																<ScoreDistribution value="1" recordCount="0"/>
															</Node>
															<Node>
																<SimplePredicate field="double(x3)" operator="lessOrEqual" value="0.46780580282211304"/>
																<Node score="0" recordCount="3">
																	<SimplePredicate field="double(x3)" operator="lessOrEqual" value="0.43375033140182495"/>
																	<ScoreDistribution value="0" recordCount="3"/>
																	<ScoreDistribution value="1" recordCount="0"/>
																</Node>
																<Node score="1" recordCount="1">
																	<True/>
																	<ScoreDistribution value="0" recordCount="0"/>
																	<ScoreDistribution value="1" recordCount="1"/>
																</Node>
															</Node>
															<Node score="0" recordCount="6">
																<True/>
																<ScoreDistribution value="0" recordCount="6"/>
																<ScoreDistribution value="1" recordCount="0"/>
															</Node>
														</Node>
														<Node score="0" recordCount="10">
															<SimplePredicate field="double(x13)" operator="lessOrEqual" value="-0.0759243294596672"/>
															<ScoreDistribution value="0" recordCount="10"/>
															<ScoreDistribution value="1" recordCount="0"/>
														</Node>
														<Node>
															<SimplePredicate field="double(x7)" operator="lessOrEqual" value="0.2192729376256466"/>
															<Node>
																<SimplePredicate field="double(x11)" operator="lessOrEqual" value="0.255694717168808"/>
																<Node>
																	<SimplePredicate field="double(x1)" operator="lessOrEqual" value="0.36057719588279724"/>
																	<Node>
																		<SimplePredicate field="double(x1)" operator="lessOrEqual" value="0.1772957183420658"/>
																		<Node>
																			<SimplePredicate field="double(x7)" operator="lessOrEqual" value="-0.7266237139701843"/>
																			<Node score="1" recordCount="1">
																				<SimplePredicate field="double(x3)" operator="lessOrEqual" value="-0.607994943857193"/>
																				<ScoreDistribution value="0" recordCount="0"/>
																				<ScoreDistribution value="1" recordCount="1"/>
																			</Node>
																			<Node score="0" recordCount="11">
																				<True/>
																				<ScoreDistribution value="0" recordCount="11"/>
																				<ScoreDistribution value="1" recordCount="0"/>
																			</Node>
																		</Node>
																		<Node score="1" recordCount="2">
																			<SimplePredicate field="double(x1)" operator="lessOrEqual" value="-0.005985734984278679"/>
																			<ScoreDistribution value="0" recordCount="0"/>
																			<ScoreDistribution value="1" recordCount="2"/>
																		</Node>
																		<Node score="1" recordCount="1">
																			<SimplePredicate field="double(x7)" operator="lessOrEqual" value="-0.4901495426893234"/>
																			<ScoreDistribution value="0" recordCount="0"/>
																			<ScoreDistribution value="1" recordCount="1"/>
																		</Node>
																		<Node>
																			<SimplePredicate field="double(x3)" operator="lessOrEqual" value="-0.9121020138263702"/>
																			<Node score="0" recordCount="1">
																				<SimplePredicate field="double(x3)" operator="lessOrEqual" value="-1.2320169806480408"/>
																				<ScoreDistribution value="0" recordCount="1"/>
																				<ScoreDistribution value="1" recordCount="0"/>
																			</Node>
																			<Node score="1" recordCount="1">
																				<True/>
																				<ScoreDistribution value="0" recordCount="0"/>
																				<ScoreDistribution value="1" recordCount="1"/>
																			</Node>
																		</Node>
																		<Node score="0" recordCount="6">
																			<True/>
																			<ScoreDistribution value="0" recordCount="6"/>
																			<ScoreDistribution value="1" recordCount="0"/>
																		</Node>
																	</Node>
																	<Node score="0" recordCount="12">
																		<True/>
																		<ScoreDistribution value="0" recordCount="12"/>
																		<ScoreDistribution value="1" recordCount="0"/>
																	</Node>
																</Node>
																<Node>
																	<SimplePredicate field="double(x1)" operator="lessOrEqual" value="0.433889776468277"/>
																	<Node score="0" recordCount="1">
																		<SimplePredicate field="double(x2)" operator="lessOrEqual" value="-1.2836350426077843"/>
																		<ScoreDistribution value="0" recordCount="1"/>
																		<ScoreDistribution value="1" recordCount="0"/>
																	</Node>
																	<Node score="1" recordCount="3">
																		<True/>
																		<ScoreDistribution value="0" recordCount="0"/>
																		<ScoreDistribution value="1" recordCount="3"/>
																	</Node>
																</Node>
																<Node>
																	<SimplePredicate field="double(x3)" operator="lessOrEqual" value="-0.4510289579629898"/>
																	<Node>
																		<SimplePredicate field="double(x7)" operator="lessOrEqual" value="-0.2536753788590431"/>
																		<Node>
																			<SimplePredicate field="double(x7)" operator="lessOrEqual" value="-0.7266237139701843"/>
																			<Node score="1" recordCount="2">
																				<SimplePredicate field="double(x3)" operator="lessOrEqual" value="-1.2994884252548218"/>
																				<ScoreDistribution value="0" recordCount="0"/>
																				<ScoreDistribution value="1" recordCount="2"/>
																			</Node>
																			<Node score="0" recordCount="2">
																				<True/>
																				<ScoreDistribution value="0" recordCount="2"/>
																				<ScoreDistribution value="1" recordCount="0"/>
																			</Node>
																		</Node>
																		<Node score="1" recordCount="2">
																			<True/>
																			<ScoreDistribution value="0" recordCount="0"/>
																			<ScoreDistribution value="1" recordCount="2"/>
																		</Node>
																	</Node>
																	<Node score="0" recordCount="3">
																		<True/>
																		<ScoreDistribution value="0" recordCount="3"/>
																		<ScoreDistribution value="1" recordCount="0"/>
																	</Node>
																</Node>
																<Node>
																	<SimplePredicate field="double(x4)" operator="lessOrEqual" value="-2.531703233718872"/>
																	<Node>
																		<SimplePredicate field="double(x3)" operator="lessOrEqual" value="0.2142964005470276"/>
																		<Node score="0" recordCount="3">
																			<SimplePredicate field="double(x3)" operator="lessOrEqual" value="-0.06502106599509716"/>
																			<ScoreDistribution value="0" recordCount="3"/>
																			<ScoreDistribution value="1" recordCount="0"/>
																		</Node>
																		<Node score="1" recordCount="2">
																			<True/>
																			<ScoreDistribution value="0" recordCount="0"/>
																			<ScoreDistribution value="1" recordCount="2"/>
																		</Node>
																	</Node>
																	<Node score="0" recordCount="5">
																		<True/>
																		<ScoreDistribution value="0" recordCount="5"/>
																		<ScoreDistribution value="1" recordCount="0"/>
																	</Node>
																</Node>
																<Node score="0" recordCount="10">
																	<True/>
																	<ScoreDistribution value="0" recordCount="10"/>
																	<ScoreDistribution value="1" recordCount="0"/>
																</Node>
															</Node>
															<Node score="1" recordCount="1">
																<True/>
																<ScoreDistribution value="0" recordCount="0"/>
																<ScoreDistribution value="1" recordCount="1"/>
															</Node>
														</Node>
														<Node score="0" recordCount="6">
															<True/>
															<ScoreDistribution value="0" recordCount="6"/>
															<ScoreDistribution value="1" recordCount="0"/>
														</Node>
													</Node>
													<Node>
														<SimplePredicate field="double(x14)" operator="lessOrEqual" value="-2.3925965428352356"/>
														<Node>
															<SimplePredicate field="double(x1)" operator="lessOrEqual" value="1.3502970337867737"/>
															<Node score="1" recordCount="2">
																<SimplePredicate field="double(x5)" operator="lessOrEqual" value="-1.3918086290359497"/>
																<ScoreDistribution value="0" recordCount="0"/>
																<ScoreDistribution value="1" recordCount="2"/>
															</Node>
															<Node score="0" recordCount="1">
																<True/>
																<ScoreDistribution value="0" recordCount="1"/>
																<ScoreDistribution value="1" recordCount="0"/>
															</Node>
														</Node>
														<Node score="0" recordCount="3">
															<True/>
															<ScoreDistribution value="0" recordCount="3"/>
															<ScoreDistribution value="1" recordCount="0"/>
														</Node>
													</Node>
													<Node>
														<SimplePredicate field="double(x3)" operator="lessOrEqual" value="-1.4339717626571655"/>
														<Node score="0" recordCount="3">
															<SimplePredicate field="double(x3)" operator="lessOrEqual" value="-1.4553174376487732"/>
															<ScoreDistribution value="0" recordCount="3"/>
															<ScoreDistribution value="1" recordCount="0"/>
														</Node>
														<Node score="1" recordCount="1">
															<True/>
															<ScoreDistribution value="0" recordCount="0"/>
															<ScoreDistribution value="1" recordCount="1"/>
														</Node>
													</Node>
													<Node>
														<SimplePredicate field="double(x9)" operator="lessOrEqual" value="-0.7844766080379486"/>
														<Node>
															<SimplePredicate field="double(x3)" operator="lessOrEqual" value="-0.5894631445407867"/>
															<Node score="0" recordCount="1">
																<SimplePredicate field="double(x1)" operator="lessOrEqual" value="1.1303593516349792"/>
																<ScoreDistribution value="0" recordCount="1"/>
																<ScoreDistribution value="1" recordCount="0"/>
															</Node>
															<Node score="1" recordCount="1">
																<True/>
																<ScoreDistribution value="0" recordCount="0"/>
																<ScoreDistribution value="1" recordCount="1"/>
															</Node>
														</Node>
														<Node>
															<SimplePredicate field="double(x2)" operator="lessOrEqual" value="-0.5967923030257225"/>
															<Node score="0" recordCount="1">
																<SimplePredicate field="double(x2)" operator="lessOrEqual" value="-1.9704777598381042"/>
																<ScoreDistribution value="0" recordCount="1"/>
																<ScoreDistribution value="1" recordCount="0"/>
															</Node>
															<Node score="1" recordCount="1">
																<True/>
																<ScoreDistribution value="0" recordCount="0"/>
																<ScoreDistribution value="1" recordCount="1"/>
															</Node>
														</Node>
														<Node score="0" recordCount="8">
															<True/>
															<ScoreDistribution value="0" recordCount="8"/>
															<ScoreDistribution value="1" recordCount="0"/>
														</Node>
													</Node>
													<Node>
														<SimplePredicate field="double(x13)" operator="lessOrEqual" value="0.4910040348768234"/>
														<Node>
															<SimplePredicate field="double(x5)" operator="lessOrEqual" value="-1.0031090378761292"/>
															<Node>
																<SimplePredicate field="double(x3)" operator="lessOrEqual" value="-0.2455260083079338"/>
																<Node>
																	<SimplePredicate field="double(x3)" operator="lessOrEqual" value="-0.2803441733121872"/>
																	<Node score="0" recordCount="45">
																		<SimplePredicate field="double(x3)" operator="lessOrEqual" value="-0.30940668284893036"/>
																		<ScoreDistribution value="0" recordCount="45"/>
																		<ScoreDistribution value="1" recordCount="0"/>
																	</Node>
																	<Node score="1" recordCount="1">
																		<SimplePredicate field="double(x3)" operator="lessOrEqual" value="-0.29900386929512024"/>
																		<ScoreDistribution value="0" recordCount="0"/>
																		<ScoreDistribution value="1" recordCount="1"/>
																	</Node>
																	<Node score="0" recordCount="2">
																		<True/>
																		<ScoreDistribution value="0" recordCount="2"/>
																		<ScoreDistribution value="1" recordCount="0"/>
																	</Node>
																</Node>
																<Node score="1" recordCount="1">
																	<True/>
																	<ScoreDistribution value="0" recordCount="0"/>
																	<ScoreDistribution value="1" recordCount="1"/>
																</Node>
															</Node>
															<Node score="0" recordCount="64">
																<True/>
																<ScoreDistribution value="0" recordCount="64"/>
																<ScoreDistribution value="1" recordCount="0"/>
															</Node>
														</Node>
														<Node>
															<SimplePredicate field="double(x7)" operator="lessOrEqual" value="-0.13543829694390297"/>
															<Node score="0" recordCount="12">
																<SimplePredicate field="double(x2)" operator="lessOrEqual" value="1.1203144788742065"/>
																<ScoreDistribution value="0" recordCount="12"/>
																<ScoreDistribution value="1" recordCount="0"/>
															</Node>
															<Node score="1" recordCount="1">
																<SimplePredicate field="double(x3)" operator="lessOrEqual" value="-0.47824399173259735"/>
																<ScoreDistribution value="0" recordCount="0"/>
																<ScoreDistribution value="1" recordCount="1"/>
															</Node>
															<Node score="0" recordCount="3">
																<True/>
																<ScoreDistribution value="0" recordCount="3"/>
																<ScoreDistribution value="1" recordCount="0"/>
															</Node>
														</Node>
														<Node score="1" recordCount="1">
															<True/>
															<ScoreDistribution value="0" recordCount="0"/>
															<ScoreDistribution value="1" recordCount="1"/>
														</Node>
													</Node>
													<Node score="1" recordCount="1">
														<SimplePredicate field="double(x1)" operator="lessOrEqual" value="1.2403281927108765"/>
														<ScoreDistribution value="0" recordCount="0"/>
														<ScoreDistribution value="1" recordCount="1"/>
													</Node>
													<Node score="0" recordCount="3">
														<True/>
														<ScoreDistribution value="0" recordCount="3"/>
														<ScoreDistribution value="1" recordCount="0"/>
													</Node>
												</Node>
												<Node score="1" recordCount="2">
													<SimplePredicate field="double(x3)" operator="lessOrEqual" value="3.8050724267959595"/>
													<ScoreDistribution value="0" recordCount="0"/>
													<ScoreDistribution value="1" recordCount="2"/>
												</Node>
												<Node score="0" recordCount="2">
													<True/>
													<ScoreDistribution value="0" recordCount="2"/>
													<ScoreDistribution value="1" recordCount="0"/>
												</Node>
											</Node>
											<Node>
												<SimplePredicate field="double(x3)" operator="lessOrEqual" value="0.56936115026474"/>
												<Node>
													<SimplePredicate field="double(x1)" operator="lessOrEqual" value="1.2036718726158142"/>
													<Node score="1" recordCount="1">
														<SimplePredicate field="double(x7)" operator="lessOrEqual" value="0.928695410490036"/>
														<ScoreDistribution value="0" recordCount="0"/>
														<ScoreDistribution value="1" recordCount="1"/>
													</Node>
													<Node score="0" recordCount="2">
														<True/>
														<ScoreDistribution value="0" recordCount="2"/>
														<ScoreDistribution value="1" recordCount="0"/>
													</Node>
												</Node>
												<Node score="1" recordCount="2">
													<True/>
													<ScoreDistribution value="0" recordCount="0"/>
													<ScoreDistribution value="1" recordCount="2"/>
												</Node>
											</Node>
											<Node score="0" recordCount="2">
												<True/>
												<ScoreDistribution value="0" recordCount="2"/>
												<ScoreDistribution value="1" recordCount="0"/>
											</Node>
										</Node>
										<Node>
											<SimplePredicate field="double(x3)" operator="lessOrEqual" value="-1.4723191261291504"/>
											<Node>
												<SimplePredicate field="double(x3)" operator="lessOrEqual" value="-1.4739108085632324"/>
												<Node>
													<SimplePredicate field="double(x1)" operator="lessOrEqual" value="0.39723347313702106"/>
													<Node score="1" recordCount="1">
														<SimplePredicate field="double(x3)" operator="lessOrEqual" value="-1.5013011693954468"/>
														<ScoreDistribution value="0" recordCount="0"/>
														<ScoreDistribution value="1" recordCount="1"/>
													</Node>
													<Node score="0" recordCount="1">
														<True/>
														<ScoreDistribution value="0" recordCount="1"/>
														<ScoreDistribution value="1" recordCount="0"/>
													</Node>
												</Node>
												<Node score="0" recordCount="7">
													<True/>
													<ScoreDistribution value="0" recordCount="7"/>
													<ScoreDistribution value="1" recordCount="0"/>
												</Node>
											</Node>
											<Node score="1" recordCount="1">
												<True/>
												<ScoreDistribution value="0" recordCount="0"/>
												<ScoreDistribution value="1" recordCount="1"/>
											</Node>
										</Node>
										<Node>
											<SimplePredicate field="double(x3)" operator="lessOrEqual" value="-0.32300233840942383"/>
											<Node>
												<SimplePredicate field="double(x3)" operator="lessOrEqual" value="-0.33326777815818787"/>
												<Node>
													<SimplePredicate field="double(x14)" operator="lessOrEqual" value="-4.5015833377838135"/>
													<Node>
														<SimplePredicate field="double(x1)" operator="lessOrEqual" value="-0.18926718831062317"/>
														<Node score="0" recordCount="1">
															<SimplePredicate field="double(x4)" operator="lessOrEqual" value="-1.4981662034988403"/>
															<ScoreDistribution value="0" recordCount="1"/>
															<ScoreDistribution value="1" recordCount="0"/>
														</Node>
														<Node score="1" recordCount="1">
															<True/>
															<ScoreDistribution value="0" recordCount="0"/>
															<ScoreDistribution value="1" recordCount="1"/>
														</Node>
													</Node>
													<Node score="0" recordCount="4">
														<True/>
														<ScoreDistribution value="0" recordCount="4"/>
														<ScoreDistribution value="1" recordCount="0"/>
													</Node>
												</Node>
												<Node score="0" recordCount="80">
													<SimplePredicate field="double(x3)" operator="lessOrEqual" value="-0.6122062802314758"/>
													<ScoreDistribution value="0" recordCount="80"/>
													<ScoreDistribution value="1" recordCount="0"/>
												</Node>
												<Node score="1" recordCount="1">
													<SimplePredicate field="double(x3)" operator="lessOrEqual" value="-0.6075306832790375"/>
													<ScoreDistribution value="0" recordCount="0"/>
													<ScoreDistribution value="1" recordCount="1"/>
												</Node>
												<Node>
													<SimplePredicate field="double(x9)" operator="lessOrEqual" value="-1.373548686504364"/>
													<Node score="1" recordCount="1">
														<SimplePredicate field="double(x3)" operator="lessOrEqual" value="-0.49778006970882416"/>
														<ScoreDistribution value="0" recordCount="0"/>
														<ScoreDistribution value="1" recordCount="1"/>
													</Node>
													<Node score="0" recordCount="2">
														<True/>
														<ScoreDistribution value="0" recordCount="2"/>
														<ScoreDistribution value="1" recordCount="0"/>
													</Node>
												</Node>
												<Node>
													<SimplePredicate field="double(x2)" operator="lessOrEqual" value="-1.9704777598381042"/>
													<Node score="1" recordCount="1">
														<SimplePredicate field="double(x3)" operator="lessOrEqual" value="-0.509092390537262"/>
														<ScoreDistribution value="0" recordCount="0"/>
														<ScoreDistribution value="1" recordCount="1"/>
													</Node>
													<Node score="0" recordCount="4">
														<True/>
														<ScoreDistribution value="0" recordCount="4"/>
														<ScoreDistribution value="1" recordCount="0"/>
													</Node>
												</Node>
												<Node score="0" recordCount="37">
													<True/>
													<ScoreDistribution value="0" recordCount="37"/>
													<ScoreDistribution value="1" recordCount="0"/>
												</Node>
											</Node>
											<Node score="1" recordCount="2">
												<True/>
												<ScoreDistribution value="0" recordCount="0"/>
												<ScoreDistribution value="1" recordCount="2"/>
											</Node>
										</Node>
										<Node score="0" recordCount="158">
											<SimplePredicate field="double(x3)" operator="lessOrEqual" value="0.8283751308917999"/>
											<ScoreDistribution value="0" recordCount="158"/>
											<ScoreDistribution value="1" recordCount="0"/>
										</Node>
										<Node score="1" recordCount="1">
											<SimplePredicate field="double(x3)" operator="lessOrEqual" value="0.8439983129501343"/>
											<ScoreDistribution value="0" recordCount="0"/>
											<ScoreDistribution value="1" recordCount="1"/>
										</Node>
										<Node>
											<SimplePredicate field="double(x1)" operator="lessOrEqual" value="1.8268288373947144"/>
											<Node score="0" recordCount="52">
												<SimplePredicate field="double(x7)" operator="lessOrEqual" value="-0.017201226204633713"/>
												<ScoreDistribution value="0" recordCount="52"/>
												<ScoreDistribution value="1" recordCount="0"/>
											</Node>
											<Node>
												<SimplePredicate field="double(x3)" operator="lessOrEqual" value="0.9237389862537384"/>
												<Node score="0" recordCount="1">
													<SimplePredicate field="double(x3)" operator="lessOrEqual" value="0.900507926940918"/>
													<ScoreDistribution value="0" recordCount="1"/>
													<ScoreDistribution value="1" recordCount="0"/>
												</Node>
												<Node score="1" recordCount="1">
													<True/>
													<ScoreDistribution value="0" recordCount="0"/>
													<ScoreDistribution value="1" recordCount="1"/>
												</Node>
											</Node>
											<Node score="0" recordCount="23">
												<SimplePredicate field="double(x3)" operator="lessOrEqual" value="2.3769023418426514"/>
												<ScoreDistribution value="0" recordCount="23"/>
												<ScoreDistribution value="1" recordCount="0"/>
											</Node>
											<Node score="0" recordCount="4">
												<SimplePredicate field="double(x1)" operator="lessOrEqual" value="0.3972334749996662"/>
												<ScoreDistribution value="0" recordCount="4"/>
												<ScoreDistribution value="1" recordCount="0"/>
											</Node>
											<Node score="1" recordCount="1">
												<True/>
												<ScoreDistribution value="0" recordCount="0"/>
												<ScoreDistribution value="1" recordCount="1"/>
											</Node>
										</Node>
										<Node score="0" recordCount="3">
											<SimplePredicate field="double(x3)" operator="lessOrEqual" value="1.894620954990387"/>
											<ScoreDistribution value="0" recordCount="3"/>
											<ScoreDistribution value="1" recordCount="0"/>
										</Node>
										<Node score="1" recordCount="1">
											<True/>
											<ScoreDistribution value="0" recordCount="0"/>
											<ScoreDistribution value="1" recordCount="1"/>
										</Node>
									</Node>
									<Node>
										<SimplePredicate field="double(x7)" operator="lessOrEqual" value="-0.4901495426893234"/>
										<Node>
											<SimplePredicate field="double(x3)" operator="lessOrEqual" value="1.3005520105361938"/>
											<Node>
												<SimplePredicate field="double(x13)" operator="lessOrEqual" value="1.3413965702056885"/>
												<Node>
													<SimplePredicate field="double(x2)" operator="lessOrEqual" value="1.1203144788742065"/>
													<Node>
														<SimplePredicate field="double(x3)" operator="lessOrEqual" value="0.4330160617828369"/>
														<Node>
															<SimplePredicate field="double(x1)" operator="lessOrEqual" value="-0.7391115725040436"/>
															<Node score="0" recordCount="1">
																<SimplePredicate field="double(x5)" operator="lessOrEqual" value="-1.3918086290359497"/>
																<ScoreDistribution value="0" recordCount="1"/>
																<ScoreDistribution value="1" recordCount="0"/>
															</Node>
															<Node score="1" recordCount="3">
																<True/>
																<ScoreDistribution value="0" recordCount="0"/>
																<ScoreDistribution value="1" recordCount="3"/>
															</Node>
														</Node>
														<Node score="1" recordCount="1">
															<SimplePredicate field="double(x5)" operator="lessOrEqual" value="-2.946606993675232"/>
															<ScoreDistribution value="0" recordCount="0"/>
															<ScoreDistribution value="1" recordCount="1"/>
														</Node>
														<Node score="0" recordCount="6">
															<SimplePredicate field="double(x5)" operator="lessOrEqual" value="-2.169207811355591"/>
															<ScoreDistribution value="0" recordCount="6"/>
															<ScoreDistribution value="1" recordCount="0"/>
														</Node>
														<Node>
															<SimplePredicate field="double(x1)" operator="lessOrEqual" value="0.7637963891029358"/>
															<Node>
																<SimplePredicate field="double(x3)" operator="lessOrEqual" value="-0.8602016270160675"/>
																<Node score="0" recordCount="2">
																	<SimplePredicate field="double(x3)" operator="lessOrEqual" value="-1.2754426002502441"/>
																	<ScoreDistribution value="0" recordCount="2"/>
																	<ScoreDistribution value="1" recordCount="0"/>
																</Node>
																<Node score="1" recordCount="1">
																	<True/>
																	<ScoreDistribution value="0" recordCount="0"/>
																	<ScoreDistribution value="1" recordCount="1"/>
																</Node>
															</Node>
															<Node score="0" recordCount="5">
																<True/>
																<ScoreDistribution value="0" recordCount="5"/>
																<ScoreDistribution value="1" recordCount="0"/>
															</Node>
														</Node>
														<Node score="1" recordCount="2">
															<SimplePredicate field="double(x1)" operator="lessOrEqual" value="1.0570467412471771"/>
															<ScoreDistribution value="0" recordCount="0"/>
															<ScoreDistribution value="1" recordCount="2"/>
														</Node>
														<Node score="1" recordCount="1">
															<SimplePredicate field="double(x7)" operator="lessOrEqual" value="-1.1995720267295837"/>
															<ScoreDistribution value="0" recordCount="0"/>
															<ScoreDistribution value="1" recordCount="1"/>
														</Node>
														<Node score="0" recordCount="2">
															<True/>
															<ScoreDistribution value="0" recordCount="2"/>
															<ScoreDistribution value="1" recordCount="0"/>
														</Node>
													</Node>
													<Node score="0" recordCount="8">
														<True/>
														<ScoreDistribution value="0" recordCount="8"/>
														<ScoreDistribution value="1" recordCount="0"/>
													</Node>
												</Node>
												<Node score="1" recordCount="4">
													<SimplePredicate field="double(x4)" operator="lessOrEqual" value="-1.23978191614151"/>
													<ScoreDistribution value="0" recordCount="0"/>
													<ScoreDistribution value="1" recordCount="4"/>
												</Node>
												<Node score="0" recordCount="2">
													<True/>
													<ScoreDistribution value="0" recordCount="2"/>
													<ScoreDistribution value="1" recordCount="0"/>
												</Node>
											</Node>
											<Node score="0" recordCount="20">
												<True/>
												<ScoreDistribution value="0" recordCount="20"/>
												<ScoreDistribution value="1" recordCount="0"/>
											</Node>
										</Node>
										<Node score="0" recordCount="1">
											<SimplePredicate field="double(x7)" operator="lessOrEqual" value="-1.0813349485397339"/>
											<ScoreDistribution value="0" recordCount="1"/>
											<ScoreDistribution value="1" recordCount="0"/>
										</Node>
										<Node score="1" recordCount="5">
											<True/>
											<ScoreDistribution value="0" recordCount="0"/>
											<ScoreDistribution value="1" recordCount="5"/>
										</Node>
									</Node>
									<Node>
										<SimplePredicate field="double(x1)" operator="lessOrEqual" value="-1.142330825328827"/>
										<Node score="0" recordCount="2">
											<SimplePredicate field="double(x4)" operator="lessOrEqual" value="-2.531703233718872"/>
											<ScoreDistribution value="0" recordCount="2"/>
											<ScoreDistribution value="1" recordCount="0"/>
										</Node>
										<Node score="1" recordCount="1">
											<True/>
											<ScoreDistribution value="0" recordCount="0"/>
											<ScoreDistribution value="1" recordCount="1"/>
										</Node>
									</Node>
									<Node score="0" recordCount="54">
										<SimplePredicate field="double(x4)" operator="lessOrEqual" value="-1.23978191614151"/>
										<ScoreDistribution value="0" recordCount="54"/>
										<ScoreDistribution value="1" recordCount="0"/>
									</Node>
									<Node>
										<SimplePredicate field="double(x13)" operator="lessOrEqual" value="0.9364477396011353"/>
										<Node>
											<SimplePredicate field="double(x11)" operator="lessOrEqual" value="0.11006519198417664"/>
											<Node score="1" recordCount="1">
												<SimplePredicate field="double(x3)" operator="lessOrEqual" value="-0.24930626526474953"/>
												<ScoreDistribution value="0" recordCount="0"/>
												<ScoreDistribution value="1" recordCount="1"/>
											</Node>
											<Node score="0" recordCount="1">
												<SimplePredicate field="double(x1)" operator="lessOrEqual" value="0.653827503323555"/>
												<ScoreDistribution value="0" recordCount="1"/>
												<ScoreDistribution value="1" recordCount="0"/>
											</Node>
											<Node score="1" recordCount="1">
												<True/>
												<ScoreDistribution value="0" recordCount="0"/>
												<ScoreDistribution value="1" recordCount="1"/>
											</Node>
										</Node>
										<Node score="0" recordCount="1">
											<True/>
											<ScoreDistribution value="0" recordCount="1"/>
											<ScoreDistribution value="1" recordCount="0"/>
										</Node>
									</Node>
									<Node score="0" recordCount="7">
										<True/>
										<ScoreDistribution value="0" recordCount="7"/>
										<ScoreDistribution value="1" recordCount="0"/>
									</Node>
								</Node>
								<Node>
									<SimplePredicate field="double(x1)" operator="lessOrEqual" value="0.5072023570537567"/>
									<Node>
										<SimplePredicate field="double(x13)" operator="lessOrEqual" value="2.1917890906333923"/>
										<Node>
											<SimplePredicate field="double(x3)" operator="lessOrEqual" value="1.7970590591430664"/>
											<Node>
												<SimplePredicate field="double(x9)" operator="lessOrEqual" value="-0.7844766080379486"/>
												<Node score="1" recordCount="1">
													<SimplePredicate field="double(x4)" operator="lessOrEqual" value="-2.531703233718872"/>
													<ScoreDistribution value="0" recordCount="0"/>
													<ScoreDistribution value="1" recordCount="1"/>
												</Node>
												<Node score="0" recordCount="4">
													<True/>
													<ScoreDistribution value="0" recordCount="4"/>
													<ScoreDistribution value="1" recordCount="0"/>
												</Node>
											</Node>
											<Node>
												<SimplePredicate field="double(x2)" operator="lessOrEqual" value="1.1203144788742065"/>
												<Node score="0" recordCount="65">
													<SimplePredicate field="double(x5)" operator="lessOrEqual" value="-1.0031090378761292"/>
													<ScoreDistribution value="0" recordCount="65"/>
													<ScoreDistribution value="1" recordCount="0"/>
												</Node>
												<Node>
													<SimplePredicate field="double(x1)" operator="lessOrEqual" value="-0.4825175255537033"/>
													<Node score="0" recordCount="1">
														<SimplePredicate field="double(x14)" operator="lessOrEqual" value="-0.5392444431781769"/>
														<ScoreDistribution value="0" recordCount="1"/>
														<ScoreDistribution value="1" recordCount="0"/>
													</Node>
													<Node score="0" recordCount="1">
														<SimplePredicate field="double(x1)" operator="lessOrEqual" value="-0.9590493440628052"/>
														<ScoreDistribution value="0" recordCount="1"/>
														<ScoreDistribution value="1" recordCount="0"/>
													</Node>
													<Node score="1" recordCount="1">
														<True/>
														<ScoreDistribution value="0" recordCount="0"/>
														<ScoreDistribution value="1" recordCount="1"/>
													</Node>
												</Node>
												<Node score="0" recordCount="5">
													<True/>
													<ScoreDistribution value="0" recordCount="5"/>
													<ScoreDistribution value="1" recordCount="0"/>
												</Node>
											</Node>
											<Node score="0" recordCount="4">
												<SimplePredicate field="double(x3)" operator="lessOrEqual" value="0.7251949310302734"/>
												<ScoreDistribution value="0" recordCount="4"/>
												<ScoreDistribution value="1" recordCount="0"/>
											</Node>
											<Node score="1" recordCount="1">
												<True/>
												<ScoreDistribution value="0" recordCount="0"/>
												<ScoreDistribution value="1" recordCount="1"/>
											</Node>
										</Node>
										<Node>
											<SimplePredicate field="double(x3)" operator="lessOrEqual" value="2.382909059524536"/>
											<Node score="1" recordCount="2">
												<SimplePredicate field="double(x1)" operator="lessOrEqual" value="-0.2625797837972641"/>
												<ScoreDistribution value="0" recordCount="0"/>
												<ScoreDistribution value="1" recordCount="2"/>
											</Node>
											<Node score="0" recordCount="1">
												<True/>
												<ScoreDistribution value="0" recordCount="1"/>
												<ScoreDistribution value="1" recordCount="0"/>
											</Node>
										</Node>
										<Node score="0" recordCount="4">
											<True/>
											<ScoreDistribution value="0" recordCount="4"/>
											<ScoreDistribution value="1" recordCount="0"/>
										</Node>
									</Node>
									<Node score="0" recordCount="3">
										<SimplePredicate field="double(x1)" operator="lessOrEqual" value="-0.5558301210403442"/>
										<ScoreDistribution value="0" recordCount="3"/>
										<ScoreDistribution value="1" recordCount="0"/>
									</Node>
									<Node score="1" recordCount="2">
										<True/>
										<ScoreDistribution value="0" recordCount="0"/>
										<ScoreDistribution value="1" recordCount="2"/>
									</Node>
								</Node>
								<Node>
									<SimplePredicate field="double(x3)" operator="lessOrEqual" value="-0.30144350230693817"/>
									<Node>
										<SimplePredicate field="double(x1)" operator="lessOrEqual" value="1.6802036762237549"/>
										<Node>
											<SimplePredicate field="double(x3)" operator="lessOrEqual" value="-0.8004328012466431"/>
											<Node>
												<SimplePredicate field="double(x3)" operator="lessOrEqual" value="-1.2084543108940125"/>
												<Node score="0" recordCount="1">
													<SimplePredicate field="double(x2)" operator="lessOrEqual" value="-0.5967923030257225"/>
													<ScoreDistribution value="0" recordCount="1"/>
													<ScoreDistribution value="1" recordCount="0"/>
												</Node>
												<Node>
													<SimplePredicate field="double(x7)" operator="lessOrEqual" value="1.519880771636963"/>
													<Node score="1" recordCount="1">
														<SimplePredicate field="double(x3)" operator="lessOrEqual" value="-1.5073409676551819"/>
														<ScoreDistribution value="0" recordCount="0"/>
														<ScoreDistribution value="1" recordCount="1"/>
													</Node>
													<Node score="0" recordCount="1">
														<True/>
														<ScoreDistribution value="0" recordCount="1"/>
														<ScoreDistribution value="1" recordCount="0"/>
													</Node>
												</Node>
												<Node score="1" recordCount="3">
													<True/>
													<ScoreDistribution value="0" recordCount="0"/>
													<ScoreDistribution value="1" recordCount="3"/>
												</Node>
											</Node>
											<Node score="0" recordCount="13">
												<SimplePredicate field="double(x5)" operator="lessOrEqual" value="-1.3918086290359497"/>
												<ScoreDistribution value="0" recordCount="13"/>
												<ScoreDistribution value="1" recordCount="0"/>
											</Node>
											<Node score="0" recordCount="2">
												<SimplePredicate field="double(x1)" operator="lessOrEqual" value="1.4969221949577332"/>
												<ScoreDistribution value="0" recordCount="2"/>
												<ScoreDistribution value="1" recordCount="0"/>
											</Node>
											<Node score="1" recordCount="1">
												<True/>
												<ScoreDistribution value="0" recordCount="0"/>
												<ScoreDistribution value="1" recordCount="1"/>
											</Node>
										</Node>
										<Node score="0" recordCount="2">
											<SimplePredicate field="double(x2)" operator="lessOrEqual" value="-0.5967923030257225"/>
											<ScoreDistribution value="0" recordCount="2"/>
											<ScoreDistribution value="1" recordCount="0"/>
										</Node>
										<Node score="0" recordCount="2">
											<SimplePredicate field="double(x13)" operator="lessOrEqual" value="-0.3998834043741226"/>
											<ScoreDistribution value="0" recordCount="2"/>
											<ScoreDistribution value="1" recordCount="0"/>
										</Node>
										<Node>
											<SimplePredicate field="double(x3)" operator="lessOrEqual" value="-0.593338131904602"/>
											<Node>
												<SimplePredicate field="double(x13)" operator="lessOrEqual" value="1.503376066684723"/>
												<Node score="0" recordCount="3">
													<SimplePredicate field="double(x9)" operator="lessOrEqual" value="-0.7844766080379486"/>
													<ScoreDistribution value="0" recordCount="3"/>
													<ScoreDistribution value="1" recordCount="0"/>
												</Node>
												<Node score="1" recordCount="3">
													<SimplePredicate field="double(x3)" operator="lessOrEqual" value="-0.7617538571357727"/>
													<ScoreDistribution value="0" recordCount="0"/>
													<ScoreDistribution value="1" recordCount="3"/>
												</Node>
												<Node score="0" recordCount="2">
													<SimplePredicate field="double(x4)" operator="lessOrEqual" value="-2.531703233718872"/>
													<ScoreDistribution value="0" recordCount="2"/>
													<ScoreDistribution value="1" recordCount="0"/>
												</Node>
												<Node score="1" recordCount="3">
													<SimplePredicate field="double(x3)" operator="lessOrEqual" value="-0.6216332316398621"/>
													<ScoreDistribution value="0" recordCount="0"/>
													<ScoreDistribution value="1" recordCount="3"/>
												</Node>
												<Node score="0" recordCount="1">
													<True/>
													<ScoreDistribution value="0" recordCount="1"/>
													<ScoreDistribution value="1" recordCount="0"/>
												</Node>
											</Node>
											<Node score="0" recordCount="3">
												<True/>
												<ScoreDistribution value="0" recordCount="3"/>
												<ScoreDistribution value="1" recordCount="0"/>
											</Node>
										</Node>
										<Node>
											<SimplePredicate field="double(x4)" operator="lessOrEqual" value="-1.23978191614151"/>
											<Node score="1" recordCount="5">
												<SimplePredicate field="double(x3)" operator="lessOrEqual" value="-0.4214595854282379"/>
												<ScoreDistribution value="0" recordCount="0"/>
												<ScoreDistribution value="1" recordCount="5"/>
											</Node>
											<Node score="1" recordCount="2">
												<SimplePredicate field="double(x4)" operator="lessOrEqual" value="-1.8857426047325134"/>
												<ScoreDistribution value="0" recordCount="0"/>
												<ScoreDistribution value="1" recordCount="2"/>
											</Node>
											<Node score="0" recordCount="1">
												<True/>
												<ScoreDistribution value="0" recordCount="1"/>
												<ScoreDistribution value="1" recordCount="0"/>
											</Node>
										</Node>
										<Node score="0" recordCount="1">
											<True/>
											<ScoreDistribution value="0" recordCount="1"/>
											<ScoreDistribution value="1" recordCount="0"/>
										</Node>
									</Node>
									<Node score="0" recordCount="9">
										<True/>
										<ScoreDistribution value="0" recordCount="9"/>
										<ScoreDistribution value="1" recordCount="0"/>
									</Node>
								</Node>
								<Node score="0" recordCount="17">
									<SimplePredicate field="double(x3)" operator="lessOrEqual" value="-0.09162972122430801"/>
									<ScoreDistribution value="0" recordCount="17"/>
									<ScoreDistribution value="1" recordCount="0"/>
								</Node>
								<Node score="1" recordCount="2">
									<SimplePredicate field="double(x3)" operator="lessOrEqual" value="-0.06880605965852737"/>
									<ScoreDistribution value="0" recordCount="0"/>
									<ScoreDistribution value="1" recordCount="2"/>
								</Node>
								<Node score="1" recordCount="1">
									<SimplePredicate field="double(x14)" operator="lessOrEqual" value="-4.37376594543457"/>
									<ScoreDistribution value="0" recordCount="0"/>
									<ScoreDistribution value="1" recordCount="1"/>
								</Node>
								<Node>
									<SimplePredicate field="double(x5)" operator="lessOrEqual" value="-1.0031090378761292"/>
									<Node>
										<SimplePredicate field="double(x13)" operator="lessOrEqual" value="1.3818914294242859"/>
										<Node>
											<SimplePredicate field="double(x1)" operator="lessOrEqual" value="0.8004526793956757"/>
											<Node>
												<SimplePredicate field="double(x4)" operator="lessOrEqual" value="-2.531703233718872"/>
												<Node score="1" recordCount="2">
													<SimplePredicate field="double(x3)" operator="lessOrEqual" value="2.313201665878296"/>
													<ScoreDistribution value="0" recordCount="0"/>
													<ScoreDistribution value="1" recordCount="2"/>
												</Node>
												<Node score="0" recordCount="1">
													<True/>
													<ScoreDistribution value="0" recordCount="1"/>
													<ScoreDistribution value="1" recordCount="0"/>
												</Node>
											</Node>
											<Node>
												<SimplePredicate field="double(x3)" operator="lessOrEqual" value="0.26407453790307045"/>
												<Node score="1" recordCount="1">
													<SimplePredicate field="double(x12)" operator="lessOrEqual" value="1.8580187633633614"/>
													<ScoreDistribution value="0" recordCount="0"/>
													<ScoreDistribution value="1" recordCount="1"/>
												</Node>
												<Node score="0" recordCount="1">
													<True/>
													<ScoreDistribution value="0" recordCount="1"/>
													<ScoreDistribution value="1" recordCount="0"/>
												</Node>
											</Node>
											<Node score="0" recordCount="6">
												<True/>
												<ScoreDistribution value="0" recordCount="6"/>
												<ScoreDistribution value="1" recordCount="0"/>
											</Node>
										</Node>
										<Node score="0" recordCount="29">
											<SimplePredicate field="double(x2)" operator="lessOrEqual" value="0.43347177654504776"/>
											<ScoreDistribution value="0" recordCount="29"/>
											<ScoreDistribution value="1" recordCount="0"/>
										</Node>
										<Node>
											<SimplePredicate field="double(x13)" operator="lessOrEqual" value="-0.23790386319160461"/>
											<Node>
												<SimplePredicate field="double(x3)" operator="lessOrEqual" value="0.17791971936821938"/>
												<Node score="0" recordCount="1">
													<SimplePredicate field="double(x2)" operator="lessOrEqual" value="1.1203144788742065"/>
													<ScoreDistribution value="0" recordCount="1"/>
													<ScoreDistribution value="1" recordCount="0"/>
												</Node>
												<Node score="1" recordCount="1">
													<True/>
													<ScoreDistribution value="0" recordCount="0"/>
													<ScoreDistribution value="1" recordCount="1"/>
												</Node>
											</Node>
											<Node score="0" recordCount="5">
												<True/>
												<ScoreDistribution value="0" recordCount="5"/>
												<ScoreDistribution value="1" recordCount="0"/>
											</Node>
										</Node>
										<Node score="1" recordCount="1">
											<True/>
											<ScoreDistribution value="0" recordCount="0"/>
											<ScoreDistribution value="1" recordCount="1"/>
										</Node>
									</Node>
									<Node score="0" recordCount="1">
										<SimplePredicate field="double(x1)" operator="lessOrEqual" value="1.2403281927108765"/>
										<ScoreDistribution value="0" recordCount="1"/>
										<ScoreDistribution value="1" recordCount="0"/>
									</Node>
									<Node score="1" recordCount="1">
										<True/>
										<ScoreDistribution value="0" recordCount="0"/>
										<ScoreDistribution value="1" recordCount="1"/>
									</Node>
								</Node>
								<Node score="0" recordCount="1">
									<SimplePredicate field="double(x14)" operator="lessOrEqual" value="-1.8813270032405853"/>
									<ScoreDistribution value="0" recordCount="1"/>
									<ScoreDistribution value="1" recordCount="0"/>
								</Node>
								<Node score="1" recordCount="1">
									<True/>
									<ScoreDistribution value="0" recordCount="0"/>
									<ScoreDistribution value="1" recordCount="1"/>
								</Node>
							</Node>
							<Node>
								<SimplePredicate field="double(x12)" operator="lessOrEqual" value="4.720628023147583"/>
								<Node score="0" recordCount="1">
									<SimplePredicate field="double(x9)" operator="lessOrEqual" value="-3.1407649517059326"/>
									<ScoreDistribution value="0" recordCount="1"/>
									<ScoreDistribution value="1" recordCount="0"/>
								</Node>
								<Node score="1" recordCount="13">
									<True/>
									<ScoreDistribution value="0" recordCount="0"/>
									<ScoreDistribution value="1" recordCount="13"/>
								</Node>
							</Node>
							<Node score="0" recordCount="12">
								<True/>
								<ScoreDistribution value="0" recordCount="12"/>
								<ScoreDistribution value="1" recordCount="0"/>
							</Node>
						</Node>
						<Node>
							<SimplePredicate field="double(x12)" operator="lessOrEqual" value="4.2069220542907715"/>
							<Node>
								<SimplePredicate field="double(x1)" operator="lessOrEqual" value="-0.22592347860336304"/>
								<Node>
									<SimplePredicate field="double(x1)" operator="lessOrEqual" value="-0.6657989919185638"/>
									<Node>
										<SimplePredicate field="double(x1)" operator="lessOrEqual" value="-0.9590493142604828"/>
										<Node>
											<SimplePredicate field="double(x13)" operator="lessOrEqual" value="0.5314989238977432"/>
											<Node>
												<SimplePredicate field="double(x11)" operator="lessOrEqual" value="0.4070112854242325"/>
												<Node>
													<SimplePredicate field="double(x7)" operator="lessOrEqual" value="1.6381178498268127"/>
													<Node>
														<SimplePredicate field="double(x3)" operator="lessOrEqual" value="1.3682035207748413"/>
														<Node>
															<SimplePredicate field="double(x13)" operator="lessOrEqual" value="0.3290244936943054"/>
															<Node score="0" recordCount="112">
																<SimplePredicate field="double(x1)" operator="lessOrEqual" value="-1.032361924648285"/>
																<ScoreDistribution value="0" recordCount="112"/>
																<ScoreDistribution value="1" recordCount="0"/>
															</Node>
															<Node>
																<SimplePredicate field="double(x7)" operator="lessOrEqual" value="-0.7266237139701843"/>
																<Node>
																	<SimplePredicate field="double(x3)" operator="lessOrEqual" value="-0.09974448755383492"/>
																	<Node score="0" recordCount="3">
																		<SimplePredicate field="double(x3)" operator="lessOrEqual" value="-0.4026625007390976"/>
																		<ScoreDistribution value="0" recordCount="3"/>
																		<ScoreDistribution value="1" recordCount="0"/>
																	</Node>
																	<Node score="1" recordCount="1">
																		<True/>
																		<ScoreDistribution value="0" recordCount="0"/>
																		<ScoreDistribution value="1" recordCount="1"/>
																	</Node>
																</Node>
																<Node score="0" recordCount="8">
																	<True/>
																	<ScoreDistribution value="0" recordCount="8"/>
																	<ScoreDistribution value="1" recordCount="0"/>
																</Node>
															</Node>
															<Node score="0" recordCount="23">
																<True/>
																<ScoreDistribution value="0" recordCount="23"/>
																<ScoreDistribution value="1" recordCount="0"/>
															</Node>
														</Node>
														<Node>
															<SimplePredicate field="double(x5)" operator="lessOrEqual" value="-0.2257098238915205"/>
															<Node score="0" recordCount="4">
																<SimplePredicate field="double(x1)" operator="lessOrEqual" value="-1.1056745052337646"/>
																<ScoreDistribution value="0" recordCount="4"/>
																<ScoreDistribution value="1" recordCount="0"/>
															</Node>
															<Node score="1" recordCount="1">
																<True/>
																<ScoreDistribution value="0" recordCount="0"/>
																<ScoreDistribution value="1" recordCount="1"/>
															</Node>
														</Node>
														<Node score="0" recordCount="10">
															<True/>
															<ScoreDistribution value="0" recordCount="10"/>
															<ScoreDistribution value="1" recordCount="0"/>
														</Node>
													</Node>
													<Node score="1" recordCount="1">
														<SimplePredicate field="double(x3)" operator="lessOrEqual" value="1.372429072856903"/>
														<ScoreDistribution value="0" recordCount="0"/>
														<ScoreDistribution value="1" recordCount="1"/>
													</Node>
													<Node>
														<SimplePredicate field="double(x7)" operator="lessOrEqual" value="-1.0813349485397339"/>
														<Node score="0" recordCount="2">
															<SimplePredicate field="double(x3)" operator="lessOrEqual" value="1.7880963683128357"/>
															<ScoreDistribution value="0" recordCount="2"/>
															<ScoreDistribution value="1" recordCount="0"/>
														</Node>
														<Node score="1" recordCount="1">
															<True/>
															<ScoreDistribution value="0" recordCount="0"/>
															<ScoreDistribution value="1" recordCount="1"/>
														</Node>
													</Node>
													<Node score="0" recordCount="23">
														<True/>
														<ScoreDistribution value="0" recordCount="23"/>
														<ScoreDistribution value="1" recordCount="0"/>
													</Node>
												</Node>
												<Node>
													<SimplePredicate field="double(x3)" operator="lessOrEqual" value="-0.4314408004283905"/>
													<Node>
														<SimplePredicate field="double(x3)" operator="lessOrEqual" value="-0.646631270647049"/>
														<Node score="0" recordCount="5">
															<SimplePredicate field="double(x13)" operator="lessOrEqual" value="0.1265500783920288"/>
															<ScoreDistribution value="0" recordCount="5"/>
															<ScoreDistribution value="1" recordCount="0"/>
														</Node>
														<Node score="1" recordCount="1">
															<True/>
															<ScoreDistribution value="0" recordCount="0"/>
															<ScoreDistribution value="1" recordCount="1"/>
														</Node>
													</Node>
													<Node score="1" recordCount="1">
														<True/>
														<ScoreDistribution value="0" recordCount="0"/>
														<ScoreDistribution value="1" recordCount="1"/>
													</Node>
												</Node>
												<Node score="0" recordCount="11">
													<True/>
													<ScoreDistribution value="0" recordCount="11"/>
													<ScoreDistribution value="1" recordCount="0"/>
												</Node>
											</Node>
											<Node score="1" recordCount="1">
												<True/>
												<ScoreDistribution value="0" recordCount="0"/>
												<ScoreDistribution value="1" recordCount="1"/>
											</Node>
										</Node>
										<Node>
											<SimplePredicate field="double(x7)" operator="lessOrEqual" value="1.401643693447113"/>
											<Node>
												<SimplePredicate field="double(x13)" operator="lessOrEqual" value="2.4752532243728638"/>
												<Node>
													<SimplePredicate field="double(x7)" operator="lessOrEqual" value="-0.2536753788590431"/>
													<Node>
														<SimplePredicate field="double(x5)" operator="lessOrEqual" value="0.16298976726830006"/>
														<Node score="1" recordCount="1">
															<SimplePredicate field="double(x14)" operator="lessOrEqual" value="-0.5392444431781769"/>
															<ScoreDistribution value="0" recordCount="0"/>
															<ScoreDistribution value="1" recordCount="1"/>
														</Node>
														<Node>
															<SimplePredicate field="double(x1)" operator="lessOrEqual" value="-1.032361924648285"/>
															<Node score="0" recordCount="15">
																<SimplePredicate field="double(x7)" operator="lessOrEqual" value="-0.4901495426893234"/>
																<ScoreDistribution value="0" recordCount="15"/>
																<ScoreDistribution value="1" recordCount="0"/>
															</Node>
															<Node score="0" recordCount="2">
																<SimplePredicate field="double(x5)" operator="lessOrEqual" value="-0.2257098238915205"/>
																<ScoreDistribution value="0" recordCount="2"/>
																<ScoreDistribution value="1" recordCount="0"/>
															</Node>
															<Node score="1" recordCount="1">
																<True/>
																<ScoreDistribution value="0" recordCount="0"/>
																<ScoreDistribution value="1" recordCount="1"/>
															</Node>
														</Node>
														<Node score="0" recordCount="2">
															<SimplePredicate field="double(x13)" operator="lessOrEqual" value="1.1794170141220093"/>
															<ScoreDistribution value="0" recordCount="2"/>
															<ScoreDistribution value="1" recordCount="0"/>
														</Node>
														<Node score="1" recordCount="2">
															<True/>
															<ScoreDistribution value="0" recordCount="0"/>
															<ScoreDistribution value="1" recordCount="2"/>
														</Node>
													</Node>
													<Node score="1" recordCount="1">
														<True/>
														<ScoreDistribution value="0" recordCount="0"/>
														<ScoreDistribution value="1" recordCount="1"/>
													</Node>
												</Node>
												<Node score="0" recordCount="22">
													<True/>
													<ScoreDistribution value="0" recordCount="22"/>
													<ScoreDistribution value="1" recordCount="0"/>
												</Node>
											</Node>
											<Node score="0" recordCount="1">
												<SimplePredicate field="double(x3)" operator="lessOrEqual" value="-0.7034346014261246"/>
												<ScoreDistribution value="0" recordCount="1"/>
												<ScoreDistribution value="1" recordCount="0"/>
											</Node>
											<Node score="1" recordCount="2">
												<True/>
												<ScoreDistribution value="0" recordCount="0"/>
												<ScoreDistribution value="1" recordCount="2"/>
											</Node>
										</Node>
										<Node score="1" recordCount="4">
											<SimplePredicate field="double(x13)" operator="lessOrEqual" value="1.1794170141220093"/>
											<ScoreDistribution value="0" recordCount="0"/>
											<ScoreDistribution value="1" recordCount="4"/>
										</Node>
										<Node score="0" recordCount="4">
											<SimplePredicate field="double(x5)" operator="lessOrEqual" value="-0.2257098238915205"/>
											<ScoreDistribution value="0" recordCount="4"/>
											<ScoreDistribution value="1" recordCount="0"/>
										</Node>
										<Node score="1" recordCount="2">
											<SimplePredicate field="double(x3)" operator="lessOrEqual" value="-0.6066637970507145"/>
											<ScoreDistribution value="0" recordCount="0"/>
											<ScoreDistribution value="1" recordCount="2"/>
										</Node>
										<Node score="0" recordCount="1">
											<True/>
											<ScoreDistribution value="0" recordCount="1"/>
											<ScoreDistribution value="1" recordCount="0"/>
										</Node>
									</Node>
									<Node>
										<SimplePredicate field="double(x5)" operator="lessOrEqual" value="-0.2257098238915205"/>
										<Node score="1" recordCount="1">
											<SimplePredicate field="double(x14)" operator="lessOrEqual" value="-4.5654919147491455"/>
											<ScoreDistribution value="0" recordCount="0"/>
											<ScoreDistribution value="1" recordCount="1"/>
										</Node>
										<Node>
											<SimplePredicate field="double(x13)" operator="lessOrEqual" value="1.8678300380706787"/>
											<Node score="1" recordCount="1">
												<SimplePredicate field="double(x6)" operator="lessOrEqual" value="-0.7381737232208252"/>
												<ScoreDistribution value="0" recordCount="0"/>
												<ScoreDistribution value="1" recordCount="1"/>
											</Node>
											<Node>
												<SimplePredicate field="double(x2)" operator="lessOrEqual" value="1.8071571588516235"/>
												<Node>
													<SimplePredicate field="double(x3)" operator="lessOrEqual" value="0.8446756899356842"/>
													<Node>
														<SimplePredicate field="double(x3)" operator="lessOrEqual" value="0.8248696029186249"/>
														<Node>
															<SimplePredicate field="double(x3)" operator="lessOrEqual" value="0.10471156239509583"/>
															<Node>
																<SimplePredicate field="double(x3)" operator="lessOrEqual" value="-0.27146197855472565"/>
																<Node>
																	<SimplePredicate field="double(x3)" operator="lessOrEqual" value="-0.27705658972263336"/>
																	<Node>
																		<SimplePredicate field="double(x7)" operator="lessOrEqual" value="0.5739841908216476"/>
																		<Node>
																			<SimplePredicate field="double(x7)" operator="lessOrEqual" value="-0.017201226204633713"/>
																			<Node>
																				<SimplePredicate field="double(x3)" operator="lessOrEqual" value="-0.3697628974914551"/>
																				<Node>
																					<SimplePredicate field="double(x1)" operator="lessOrEqual" value="-0.7391115725040436"/>
																					<Node>
																						<SimplePredicate field="double(x3)" operator="lessOrEqual" value="-1.4619258046150208"/>
																						<Node score="0" recordCount="3">
																							<SimplePredicate field="double(x3)" operator="lessOrEqual" value="-1.5002447366714478"/>
																							<ScoreDistribution value="0" recordCount="3"/>
																							<ScoreDistribution value="1" recordCount="0"/>
																						</Node>
																						<Node score="1" recordCount="1">
																							<True/>
																							<ScoreDistribution value="0" recordCount="0"/>
																							<ScoreDistribution value="1" recordCount="1"/>
																						</Node>
																					</Node>
																					<Node score="0" recordCount="13">
																						<SimplePredicate field="double(x3)" operator="lessOrEqual" value="-1.0626775026321411"/>
																						<ScoreDistribution value="0" recordCount="13"/>
																						<ScoreDistribution value="1" recordCount="0"/>
																					</Node>
																					<Node score="1" recordCount="1">
																						<SimplePredicate field="double(x3)" operator="lessOrEqual" value="-1.009204387664795"/>
																						<ScoreDistribution value="0" recordCount="0"/>
																						<ScoreDistribution value="1" recordCount="1"/>
																					</Node>
																					<Node score="0" recordCount="11">
																						<SimplePredicate field="double(x3)" operator="lessOrEqual" value="-0.7183187901973724"/>
																						<ScoreDistribution value="0" recordCount="11"/>
																						<ScoreDistribution value="1" recordCount="0"/>
																					</Node>
																					<Node score="1" recordCount="1">
																						<SimplePredicate field="double(x3)" operator="lessOrEqual" value="-0.6824773848056793"/>
																						<ScoreDistribution value="0" recordCount="0"/>
																						<ScoreDistribution value="1" recordCount="1"/>
																					</Node>
																					<Node score="0" recordCount="8">
																						<SimplePredicate field="double(x7)" operator="lessOrEqual" value="-0.2536753788590431"/>
																						<ScoreDistribution value="0" recordCount="8"/>
																						<ScoreDistribution value="1" recordCount="0"/>
																					</Node>
																					<Node score="1" recordCount="1">
																						<SimplePredicate field="double(x3)" operator="lessOrEqual" value="-0.4733457416296005"/>
																						<ScoreDistribution value="0" recordCount="0"/>
																						<ScoreDistribution value="1" recordCount="1"/>
																					</Node>
																					<Node score="0" recordCount="2">
																						<True/>
																						<ScoreDistribution value="0" recordCount="2"/>
																						<ScoreDistribution value="1" recordCount="0"/>
																					</Node>
																				</Node>
																				<Node score="0" recordCount="16">
																					<True/>
																					<ScoreDistribution value="0" recordCount="16"/>
																					<ScoreDistribution value="1" recordCount="0"/>
																				</Node>
																			</Node>
																			<Node score="0" recordCount="3">
																				<SimplePredicate field="double(x1)" operator="lessOrEqual" value="-0.7757678627967834"/>
																				<ScoreDistribution value="0" recordCount="3"/>
																				<ScoreDistribution value="1" recordCount="0"/>
																			</Node>
																			<Node score="1" recordCount="1">
																				<True/>
																				<ScoreDistribution value="0" recordCount="0"/>
																				<ScoreDistribution value="1" recordCount="1"/>
																			</Node>
																		</Node>
																		<Node score="0" recordCount="20">
																			<True/>
																			<ScoreDistribution value="0" recordCount="20"/>
																			<ScoreDistribution value="1" recordCount="0"/>
																		</Node>
																	</Node>
																	<Node score="1" recordCount="1">
																		<SimplePredicate field="double(x2)" operator="lessOrEqual" value="-1.627056360244751"/>
																		<ScoreDistribution value="0" recordCount="0"/>
																		<ScoreDistribution value="1" recordCount="1"/>
																	</Node>
																	<Node>
																		<SimplePredicate field="double(x7)" operator="lessOrEqual" value="1.401643693447113"/>
																		<Node score="0" recordCount="3">
																			<SimplePredicate field="double(x3)" operator="lessOrEqual" value="-1.021847903728485"/>
																			<ScoreDistribution value="0" recordCount="3"/>
																			<ScoreDistribution value="1" recordCount="0"/>
																		</Node>
																		<Node score="1" recordCount="2">
																			<SimplePredicate field="double(x3)" operator="lessOrEqual" value="-0.4425352215766907"/>
																			<ScoreDistribution value="0" recordCount="0"/>
																			<ScoreDistribution value="1" recordCount="2"/>
																		</Node>
																		<Node score="0" recordCount="1">
																			<True/>
																			<ScoreDistribution value="0" recordCount="1"/>
																			<ScoreDistribution value="1" recordCount="0"/>
																		</Node>
																	</Node>
																	<Node score="0" recordCount="7">
																		<SimplePredicate field="double(x3)" operator="lessOrEqual" value="-0.5885915160179138"/>
																		<ScoreDistribution value="0" recordCount="7"/>
																		<ScoreDistribution value="1" recordCount="0"/>
																	</Node>
																	<Node score="1" recordCount="1">
																		<SimplePredicate field="double(x3)" operator="lessOrEqual" value="-0.5388086438179016"/>
																		<ScoreDistribution value="0" recordCount="0"/>
																		<ScoreDistribution value="1" recordCount="1"/>
																	</Node>
																	<Node score="0" recordCount="5">
																		<True/>
																		<ScoreDistribution value="0" recordCount="5"/>
																		<ScoreDistribution value="1" recordCount="0"/>
																	</Node>
																</Node>
																<Node score="1" recordCount="3">
																	<SimplePredicate field="double(x13)" operator="lessOrEqual" value="0.5719937831163406"/>
																	<ScoreDistribution value="0" recordCount="0"/>
																	<ScoreDistribution value="1" recordCount="3"/>
																</Node>
																<Node score="0" recordCount="2">
																	<True/>
																	<ScoreDistribution value="0" recordCount="2"/>
																	<ScoreDistribution value="1" recordCount="0"/>
																</Node>
															</Node>
															<Node score="0" recordCount="45">
																<SimplePredicate field="double(x13)" operator="lessOrEqual" value="0.6934784352779388"/>
																<ScoreDistribution value="0" recordCount="45"/>
																<ScoreDistribution value="1" recordCount="0"/>
															</Node>
															<Node>
																<SimplePredicate field="double(x2)" operator="lessOrEqual" value="0.7768931165337563"/>
																<Node>
																	<SimplePredicate field="double(x1)" operator="lessOrEqual" value="-0.8124241530895233"/>
																	<Node score="0" recordCount="1">
																		<SimplePredicate field="double(x1)" operator="lessOrEqual" value="-0.885736733675003"/>
																		<ScoreDistribution value="0" recordCount="1"/>
																		<ScoreDistribution value="1" recordCount="0"/>
																	</Node>
																	<Node score="1" recordCount="1">
																		<SimplePredicate field="double(x7)" operator="lessOrEqual" value="0.9286953918635845"/>
																		<ScoreDistribution value="0" recordCount="0"/>
																		<ScoreDistribution value="1" recordCount="1"/>
																	</Node>
																	<Node score="0" recordCount="1">
																		<True/>
																		<ScoreDistribution value="0" recordCount="1"/>
																		<ScoreDistribution value="1" recordCount="0"/>
																	</Node>
																</Node>
																<Node score="0" recordCount="10">
																	<True/>
																	<ScoreDistribution value="0" recordCount="10"/>
																	<ScoreDistribution value="1" recordCount="0"/>
																</Node>
															</Node>
															<Node score="0" recordCount="1">
																<SimplePredicate field="double(x3)" operator="lessOrEqual" value="-0.024622519966214895"/>
																<ScoreDistribution value="0" recordCount="1"/>
																<ScoreDistribution value="1" recordCount="0"/>
															</Node>
															<Node score="1" recordCount="1">
																<True/>
																<ScoreDistribution value="0" recordCount="0"/>
																<ScoreDistribution value="1" recordCount="1"/>
															</Node>
														</Node>
														<Node score="1" recordCount="2">
															<SimplePredicate field="double(x3)" operator="lessOrEqual" value="0.14482587575912476"/>
															<ScoreDistribution value="0" recordCount="0"/>
															<ScoreDistribution value="1" recordCount="2"/>
														</Node>
														<Node>
															<SimplePredicate field="double(x1)" operator="lessOrEqual" value="-0.885736733675003"/>
															<Node>
																<SimplePredicate field="double(x7)" operator="lessOrEqual" value="0.573984157294035"/>
																<Node>
																	<SimplePredicate field="double(x3)" operator="lessOrEqual" value="0.43860118091106415"/>
																	<Node>
																		<SimplePredicate field="double(x3)" operator="lessOrEqual" value="0.34582380950450897"/>
																		<Node>
																			<SimplePredicate field="double(x3)" operator="lessOrEqual" value="0.16616207361221313"/>
																			<Node score="0" recordCount="1">
																				<SimplePredicate field="double(x3)" operator="lessOrEqual" value="0.1531064435839653"/>
																				<ScoreDistribution value="0" recordCount="1"/>
																				<ScoreDistribution value="1" recordCount="0"/>
																			</Node>
																			<Node score="1" recordCount="1">
																				<True/>
																				<ScoreDistribution value="0" recordCount="0"/>
																				<ScoreDistribution value="1" recordCount="1"/>
																			</Node>
																		</Node>
																		<Node score="0" recordCount="3">
																			<True/>
																			<ScoreDistribution value="0" recordCount="3"/>
																			<ScoreDistribution value="1" recordCount="0"/>
																		</Node>
																	</Node>
																	<Node score="1" recordCount="1">
																		<True/>
																		<ScoreDistribution value="0" recordCount="0"/>
																		<ScoreDistribution value="1" recordCount="1"/>
																	</Node>
																</Node>
																<Node score="0" recordCount="6">
																	<True/>
																	<ScoreDistribution value="0" recordCount="6"/>
																	<ScoreDistribution value="1" recordCount="0"/>
																</Node>
															</Node>
															<Node>
																<SimplePredicate field="double(x3)" operator="lessOrEqual" value="0.35839149355888367"/>
																<Node score="0" recordCount="1">
																	<SimplePredicate field="double(x13)" operator="lessOrEqual" value="0.4505091458559036"/>
																	<ScoreDistribution value="0" recordCount="1"/>
																	<ScoreDistribution value="1" recordCount="0"/>
																</Node>
																<Node score="1" recordCount="1">
																	<True/>
																	<ScoreDistribution value="0" recordCount="0"/>
																	<ScoreDistribution value="1" recordCount="1"/>
																</Node>
															</Node>
															<Node score="1" recordCount="2">
																<True/>
																<ScoreDistribution value="0" recordCount="0"/>
																<ScoreDistribution value="1" recordCount="2"/>
															</Node>
														</Node>
														<Node>
															<SimplePredicate field="double(x2)" operator="lessOrEqual" value="0.7768931165337563"/>
															<Node>
																<SimplePredicate field="double(x1)" operator="lessOrEqual" value="-0.7391115725040436"/>
																<Node>
																	<SimplePredicate field="double(x2)" operator="lessOrEqual" value="-0.5967923030257225"/>
																	<Node score="0" recordCount="3">
																		<SimplePredicate field="double(x3)" operator="lessOrEqual" value="0.6177986562252045"/>
																		<ScoreDistribution value="0" recordCount="3"/>
																		<ScoreDistribution value="1" recordCount="0"/>
																	</Node>
																	<Node score="1" recordCount="1">
																		<True/>
																		<ScoreDistribution value="0" recordCount="0"/>
																		<ScoreDistribution value="1" recordCount="1"/>
																	</Node>
																</Node>
																<Node score="0" recordCount="28">
																	<True/>
																	<ScoreDistribution value="0" recordCount="28"/>
																	<ScoreDistribution value="1" recordCount="0"/>
																</Node>
															</Node>
															<Node>
																<SimplePredicate field="double(x7)" operator="lessOrEqual" value="0.5739841908216476"/>
																<Node>
																	<SimplePredicate field="double(x13)" operator="lessOrEqual" value="0.5719937831163406"/>
																	<Node>
																		<SimplePredicate field="double(x3)" operator="lessOrEqual" value="0.17517689615488052"/>
																		<Node>
																			<SimplePredicate field="double(x7)" operator="lessOrEqual" value="-0.37191246822476387"/>
																			<Node score="1" recordCount="1">
																				<SimplePredicate field="double(x13)" operator="lessOrEqual" value="0.1670449674129486"/>
																				<ScoreDistribution value="0" recordCount="0"/>
																				<ScoreDistribution value="1" recordCount="1"/>
																			</Node>
																			<Node score="0" recordCount="1">
																				<True/>
																				<ScoreDistribution value="0" recordCount="1"/>
																				<ScoreDistribution value="1" recordCount="0"/>
																			</Node>
																		</Node>
																		<Node score="0" recordCount="1">
																			<True/>
																			<ScoreDistribution value="0" recordCount="1"/>
																			<ScoreDistribution value="1" recordCount="0"/>
																		</Node>
																	</Node>
																	<Node score="0" recordCount="7">
																		<True/>
																		<ScoreDistribution value="0" recordCount="7"/>
																		<ScoreDistribution value="1" recordCount="0"/>
																	</Node>
																</Node>
																<Node score="0" recordCount="1">
																	<SimplePredicate field="double(x9)" operator="lessOrEqual" value="-0.7844766080379486"/>
																	<ScoreDistribution value="0" recordCount="1"/>
																	<ScoreDistribution value="1" recordCount="0"/>
																</Node>
																<Node score="1" recordCount="1">
																	<True/>
																	<ScoreDistribution value="0" recordCount="0"/>
																	<ScoreDistribution value="1" recordCount="1"/>
																</Node>
															</Node>
															<Node score="1" recordCount="1">
																<True/>
																<ScoreDistribution value="0" recordCount="0"/>
																<ScoreDistribution value="1" recordCount="1"/>
															</Node>
														</Node>
														<Node score="0" recordCount="1">
															<SimplePredicate field="double(x13)" operator="lessOrEqual" value="0.7744681984186172"/>
															<ScoreDistribution value="0" recordCount="1"/>
															<ScoreDistribution value="1" recordCount="0"/>
														</Node>
														<Node score="1" recordCount="1">
															<True/>
															<ScoreDistribution value="0" recordCount="0"/>
															<ScoreDistribution value="1" recordCount="1"/>
														</Node>
													</Node>
													<Node score="1" recordCount="1">
														<True/>
														<ScoreDistribution value="0" recordCount="0"/>
														<ScoreDistribution value="1" recordCount="1"/>
													</Node>
												</Node>
												<Node score="0" recordCount="33">
													<SimplePredicate field="double(x13)" operator="lessOrEqual" value="0.6934784352779388"/>
													<ScoreDistribution value="0" recordCount="33"/>
													<ScoreDistribution value="1" recordCount="0"/>
												</Node>
												<Node>
													<SimplePredicate field="double(x13)" operator="lessOrEqual" value="1.1794170141220093"/>
													<Node score="0" recordCount="2">
														<SimplePredicate field="double(x1)" operator="lessOrEqual" value="-0.8124241530895233"/>
														<ScoreDistribution value="0" recordCount="2"/>
														<ScoreDistribution value="1" recordCount="0"/>
													</Node>
													<Node score="1" recordCount="1">
														<True/>
														<ScoreDistribution value="0" recordCount="0"/>
														<ScoreDistribution value="1" recordCount="1"/>
													</Node>
												</Node>
												<Node score="0" recordCount="5">
													<True/>
													<ScoreDistribution value="0" recordCount="5"/>
													<ScoreDistribution value="1" recordCount="0"/>
												</Node>
											</Node>
											<Node>
												<SimplePredicate field="double(x1)" operator="lessOrEqual" value="-0.7391115725040436"/>
												<Node score="1" recordCount="1">
													<SimplePredicate field="double(x3)" operator="lessOrEqual" value="-0.9587488770484924"/>
													<ScoreDistribution value="0" recordCount="0"/>
													<ScoreDistribution value="1" recordCount="1"/>
												</Node>
												<Node score="0" recordCount="3">
													<True/>
													<ScoreDistribution value="0" recordCount="3"/>
													<ScoreDistribution value="1" recordCount="0"/>
												</Node>
											</Node>
											<Node score="1" recordCount="1">
												<True/>
												<ScoreDistribution value="0" recordCount="0"/>
												<ScoreDistribution value="1" recordCount="1"/>
											</Node>
										</Node>
										<Node>
											<SimplePredicate field="double(x2)" operator="lessOrEqual" value="0.7768931165337563"/>
											<Node score="1" recordCount="1">
												<SimplePredicate field="double(x2)" operator="lessOrEqual" value="-0.5967923030257225"/>
												<ScoreDistribution value="0" recordCount="0"/>
												<ScoreDistribution value="1" recordCount="1"/>
											</Node>
											<Node score="1" recordCount="1">
												<SimplePredicate field="double(x9)" operator="lessOrEqual" value="-0.7844766080379486"/>
												<ScoreDistribution value="0" recordCount="0"/>
												<ScoreDistribution value="1" recordCount="1"/>
											</Node>
											<Node score="0" recordCount="9">
												<True/>
												<ScoreDistribution value="0" recordCount="9"/>
												<ScoreDistribution value="1" recordCount="0"/>
											</Node>
										</Node>
										<Node>
											<SimplePredicate field="double(x7)" operator="lessOrEqual" value="0.21927295625209808"/>
											<Node score="1" recordCount="1">
												<SimplePredicate field="double(x3)" operator="lessOrEqual" value="-0.9227606058120728"/>
												<ScoreDistribution value="0" recordCount="0"/>
												<ScoreDistribution value="1" recordCount="1"/>
											</Node>
											<Node score="0" recordCount="2">
												<True/>
												<ScoreDistribution value="0" recordCount="2"/>
												<ScoreDistribution value="1" recordCount="0"/>
											</Node>
										</Node>
										<Node score="1" recordCount="2">
											<True/>
											<ScoreDistribution value="0" recordCount="0"/>
											<ScoreDistribution value="1" recordCount="2"/>
										</Node>
									</Node>
									<Node>
										<SimplePredicate field="double(x3)" operator="lessOrEqual" value="1.0136456489562988"/>
										<Node>
											<SimplePredicate field="double(x3)" operator="lessOrEqual" value="-0.3316950350999832"/>
											<Node score="1" recordCount="2">
												<SimplePredicate field="double(x2)" operator="lessOrEqual" value="-1.627056360244751"/>
												<ScoreDistribution value="0" recordCount="0"/>
												<ScoreDistribution value="1" recordCount="2"/>
											</Node>
											<Node>
												<SimplePredicate field="double(x7)" operator="lessOrEqual" value="-0.017201226204633713"/>
												<Node>
													<SimplePredicate field="double(x3)" operator="lessOrEqual" value="-0.7200573086738586"/>
													<Node score="1" recordCount="1">
														<SimplePredicate field="double(x14)" operator="lessOrEqual" value="-0.28360965847969055"/>
														<ScoreDistribution value="0" recordCount="0"/>
														<ScoreDistribution value="1" recordCount="1"/>
													</Node>
													<Node>
														<SimplePredicate field="double(x7)" operator="lessOrEqual" value="-0.2536753788590431"/>
														<Node>
															<SimplePredicate field="double(x3)" operator="lessOrEqual" value="-0.7337998151779175"/>
															<Node>
																<SimplePredicate field="double(x7)" operator="lessOrEqual" value="-0.7266237139701843"/>
																<Node score="0" recordCount="12">
																	<SimplePredicate field="double(x3)" operator="lessOrEqual" value="-0.7764532566070557"/>
																	<ScoreDistribution value="0" recordCount="12"/>
																	<ScoreDistribution value="1" recordCount="0"/>
																</Node>
																<Node score="1" recordCount="1">
																	<SimplePredicate field="double(x13)" operator="lessOrEqual" value="0.3290245085954666"/>
																	<ScoreDistribution value="0" recordCount="0"/>
																	<ScoreDistribution value="1" recordCount="1"/>
																</Node>
																<Node score="0" recordCount="2">
																	<True/>
																	<ScoreDistribution value="0" recordCount="2"/>
																	<ScoreDistribution value="1" recordCount="0"/>
																</Node>
															</Node>
															<Node score="0" recordCount="5">
																<SimplePredicate field="double(x1)" operator="lessOrEqual" value="-0.8124241530895233"/>
																<ScoreDistribution value="0" recordCount="5"/>
																<ScoreDistribution value="1" recordCount="0"/>
															</Node>
															<Node score="1" recordCount="2">
																<SimplePredicate field="double(x7)" operator="lessOrEqual" value="-0.4901495426893234"/>
																<ScoreDistribution value="0" recordCount="0"/>
																<ScoreDistribution value="1" recordCount="2"/>
															</Node>
															<Node score="0" recordCount="2">
																<True/>
																<ScoreDistribution value="0" recordCount="2"/>
																<ScoreDistribution value="1" recordCount="0"/>
															</Node>
														</Node>
														<Node score="1" recordCount="1">
															<True/>
															<ScoreDistribution value="0" recordCount="0"/>
															<ScoreDistribution value="1" recordCount="1"/>
														</Node>
													</Node>
													<Node score="1" recordCount="1">
														<True/>
														<ScoreDistribution value="0" recordCount="0"/>
														<ScoreDistribution value="1" recordCount="1"/>
													</Node>
												</Node>
												<Node>
													<SimplePredicate field="double(x3)" operator="lessOrEqual" value="-0.537434846162796"/>
													<Node score="0" recordCount="8">
														<SimplePredicate field="double(x3)" operator="lessOrEqual" value="-0.5426172912120819"/>
														<ScoreDistribution value="0" recordCount="8"/>
														<ScoreDistribution value="1" recordCount="0"/>
													</Node>
													<Node score="1" recordCount="1">
														<True/>
														<ScoreDistribution value="0" recordCount="0"/>
														<ScoreDistribution value="1" recordCount="1"/>
													</Node>
												</Node>
												<Node score="0" recordCount="9">
													<True/>
													<ScoreDistribution value="0" recordCount="9"/>
													<ScoreDistribution value="1" recordCount="0"/>
												</Node>
											</Node>
											<Node>
												<SimplePredicate field="double(x2)" operator="lessOrEqual" value="-0.5967923030257225"/>
												<Node score="1" recordCount="1">
													<SimplePredicate field="double(x13)" operator="lessOrEqual" value="1.3818914294242859"/>
													<ScoreDistribution value="0" recordCount="0"/>
													<ScoreDistribution value="1" recordCount="1"/>
												</Node>
												<Node score="0" recordCount="1">
													<True/>
													<ScoreDistribution value="0" recordCount="1"/>
													<ScoreDistribution value="1" recordCount="0"/>
												</Node>
											</Node>
											<Node score="0" recordCount="23">
												<True/>
												<ScoreDistribution value="0" recordCount="23"/>
												<ScoreDistribution value="1" recordCount="0"/>
											</Node>
										</Node>
										<Node>
											<SimplePredicate field="double(x3)" operator="lessOrEqual" value="-0.31499654054641724"/>
											<Node score="0" recordCount="1">
												<SimplePredicate field="double(x13)" operator="lessOrEqual" value="0.369519367814064"/>
												<ScoreDistribution value="0" recordCount="1"/>
												<ScoreDistribution value="1" recordCount="0"/>
											</Node>
											<Node score="1" recordCount="3">
												<True/>
												<ScoreDistribution value="0" recordCount="0"/>
												<ScoreDistribution value="1" recordCount="3"/>
											</Node>
										</Node>
										<Node score="1" recordCount="1">
											<SimplePredicate field="double(x6)" operator="lessOrEqual" value="-0.7381737232208252"/>
											<ScoreDistribution value="0" recordCount="0"/>
											<ScoreDistribution value="1" recordCount="1"/>
										</Node>
										<Node>
											<SimplePredicate field="double(x12)" operator="lessOrEqual" value="1.6259824112057686"/>
											<Node>
												<SimplePredicate field="double(x7)" operator="lessOrEqual" value="1.401643693447113"/>
												<Node>
													<SimplePredicate field="double(x7)" operator="lessOrEqual" value="0.928695410490036"/>
													<Node>
														<SimplePredicate field="double(x3)" operator="lessOrEqual" value="-0.012334313709288836"/>
														<Node>
															<SimplePredicate field="double(x7)" operator="lessOrEqual" value="-0.7266237139701843"/>
															<Node score="1" recordCount="1">
																<SimplePredicate field="double(x3)" operator="lessOrEqual" value="-0.1107868179678917"/>
																<ScoreDistribution value="0" recordCount="0"/>
																<ScoreDistribution value="1" recordCount="1"/>
															</Node>
															<Node score="0" recordCount="3">
																<True/>
																<ScoreDistribution value="0" recordCount="3"/>
																<ScoreDistribution value="1" recordCount="0"/>
															</Node>
														</Node>
														<Node score="0" recordCount="14">
															<True/>
															<ScoreDistribution value="0" recordCount="14"/>
															<ScoreDistribution value="1" recordCount="0"/>
														</Node>
													</Node>
													<Node>
														<SimplePredicate field="double(x7)" operator="lessOrEqual" value="0.5739841908216476"/>
														<Node>
															<SimplePredicate field="double(x3)" operator="lessOrEqual" value="0.7202682793140411"/>
															<Node>
																<SimplePredicate field="double(x13)" operator="lessOrEqual" value="0.5719937831163406"/>
																<Node>
																	<SimplePredicate field="double(x3)" operator="lessOrEqual" value="0.16648893058300018"/>
																	<Node score="1" recordCount="1">
																		<SimplePredicate field="double(x3)" operator="lessOrEqual" value="-0.002324683591723442"/>
																		<ScoreDistribution value="0" recordCount="0"/>
																		<ScoreDistribution value="1" recordCount="1"/>
																	</Node>
																	<Node score="1" recordCount="1">
																		<SimplePredicate field="double(x13)" operator="lessOrEqual" value="-0.318893626332283"/>
																		<ScoreDistribution value="0" recordCount="0"/>
																		<ScoreDistribution value="1" recordCount="1"/>
																	</Node>
																	<Node>
																		<SimplePredicate field="double(x3)" operator="lessOrEqual" value="0.026837305165827274"/>
																		<Node score="0" recordCount="2">
																			<SimplePredicate field="double(x3)" operator="lessOrEqual" value="0.018741490319371223"/>
																			<ScoreDistribution value="0" recordCount="2"/>
																			<ScoreDistribution value="1" recordCount="0"/>
																		</Node>
																		<Node score="1" recordCount="1">
																			<True/>
																			<ScoreDistribution value="0" recordCount="0"/>
																			<ScoreDistribution value="1" recordCount="1"/>
																		</Node>
																	</Node>
																	<Node score="0" recordCount="8">
																		<True/>
																		<ScoreDistribution value="0" recordCount="8"/>
																		<ScoreDistribution value="1" recordCount="0"/>
																	</Node>
																</Node>
																<Node>
																	<SimplePredicate field="double(x13)" operator="lessOrEqual" value="0.1670449674129486"/>
																	<Node>
																		<SimplePredicate field="double(x5)" operator="lessOrEqual" value="0.16298976726830006"/>
																		<Node score="1" recordCount="2">
																			<SimplePredicate field="double(x3)" operator="lessOrEqual" value="0.22035997360944748"/>
																			<ScoreDistribution value="0" recordCount="0"/>
																			<ScoreDistribution value="1" recordCount="2"/>
																		</Node>
