<?xml version="1.0" encoding="UTF-8" standalone="yes"?>
<PMML xmlns="http://www.dmg.org/PMML-4_4" xmlns:data="http://jpmml.org/jpmml-model/InlineTable" version="4.4">
	<Header>
		<Application name="SkLearn2PMML package" version="0.89.1"/>
		<Timestamp>2022-12-24T09:45:43Z</Timestamp>
	</Header>
	<MiningBuildTask>
		<Extension name="repr">PMMLPipeline(steps=[('classifier', DecisionTreeClassifier())])</Extension>
	</MiningBuildTask>
	<DataDictionary>
		<DataField name="y" optype="categorical" dataType="integer">
			<Value value="0"/>
			<Value value="1"/>
		</DataField>
		<DataField name="x1" optype="continuous" dataType="float"/>
		<DataField name="x2" optype="continuous" dataType="float"/>
		<DataField name="x3" optype="continuous" dataType="float"/>
		<DataField name="x4" optype="continuous" dataType="float"/>
		<DataField name="x5" optype="continuous" dataType="float"/>
		<DataField name="x6" optype="continuous" dataType="float"/>
		<DataField name="x7" optype="continuous" dataType="float"/>
		<DataField name="x8" optype="continuous" dataType="float"/>
		<DataField name="x9" optype="continuous" dataType="float"/>
		<DataField name="x10" optype="continuous" dataType="float"/>
		<DataField name="x11" optype="continuous" dataType="float"/>
		<DataField name="x12" optype="continuous" dataType="float"/>
		<DataField name="x13" optype="continuous" dataType="float"/>
		<DataField name="x14" optype="continuous" dataType="float"/>
	</DataDictionary>
	<TreeModel functionName="classification" algorithmName="sklearn.tree._classes.DecisionTreeClassifier" missingValueStrategy="nullPrediction">
		<MiningSchema>
			<MiningField name="y" usageType="target"/>
			<MiningField name="x8"/>
			<MiningField name="x5"/>
			<MiningField name="x11"/>
			<MiningField name="x12"/>
			<MiningField name="x1"/>
			<MiningField name="x3"/>
			<MiningField name="x7"/>
			<MiningField name="x9"/>
			<MiningField name="x13"/>
			<MiningField name="x4"/>
			<MiningField name="x14"/>
			<MiningField name="x2"/>
			<MiningField name="x6"/>
			<MiningField name="x10"/>
		</MiningSchema>
		<Output>
			<OutputField name="probability(0)" optype="continuous" dataType="double" feature="probability" value="0"/>
			<OutputField name="probability(1)" optype="continuous" dataType="double" feature="probability" value="1"/>
		</Output>
		<LocalTransformations>
			<DerivedField name="double(x8)" optype="continuous" dataType="double">
				<FieldRef field="x8"/>
			</DerivedField>
			<DerivedField name="double(x5)" optype="continuous" dataType="double">
				<FieldRef field="x5"/>
			</DerivedField>
			<DerivedField name="double(x11)" optype="continuous" dataType="double">
				<FieldRef field="x11"/>
			</DerivedField>
			<DerivedField name="double(x12)" optype="continuous" dataType="double">
				<FieldRef field="x12"/>
			</DerivedField>
			<DerivedField name="double(x1)" optype="continuous" dataType="double">
				<FieldRef field="x1"/>
			</DerivedField>
			<DerivedField name="double(x3)" optype="continuous" dataType="double">
				<FieldRef field="x3"/>
			</DerivedField>
			<DerivedField name="double(x7)" optype="continuous" dataType="double">
				<FieldRef field="x7"/>
			</DerivedField>
			<DerivedField name="double(x9)" optype="continuous" dataType="double">
				<FieldRef field="x9"/>
			</DerivedField>
			<DerivedField name="double(x13)" optype="continuous" dataType="double">
				<FieldRef field="x13"/>
			</DerivedField>
			<DerivedField name="double(x4)" optype="continuous" dataType="double">
				<FieldRef field="x4"/>
			</DerivedField>
			<DerivedField name="double(x14)" optype="continuous" dataType="double">
				<FieldRef field="x14"/>
			</DerivedField>
			<DerivedField name="double(x2)" optype="continuous" dataType="double">
				<FieldRef field="x2"/>
			</DerivedField>
			<DerivedField name="double(x6)" optype="continuous" dataType="double">
				<FieldRef field="x6"/>
			</DerivedField>
			<DerivedField name="double(x10)" optype="continuous" dataType="double">
				<FieldRef field="x10"/>
			</DerivedField>
		</LocalTransformations>
		<Node>
			<True/>
			<Node>
				<SimplePredicate field="double(x8)" operator="lessOrEqual" value="-0.5889929234981537"/>
				<Node>
					<SimplePredicate field="double(x5)" operator="lessOrEqual" value="0.9403889775276184"/>
					<Node>
						<SimplePredicate field="double(x11)" operator="lessOrEqual" value="0.5440424978733063"/>
						<Node>
							<SimplePredicate field="double(x5)" operator="lessOrEqual" value="-0.6144094169139862"/>
							<Node>
								<SimplePredicate field="double(x12)" operator="lessOrEqual" value="4.229257106781006"/>
								<Node>
									<SimplePredicate field="double(x1)" operator="lessOrEqual" value="-0.1526108980178833"/>
									<Node>
										<SimplePredicate field="double(x3)" operator="lessOrEqual" value="-1.5179333090782166"/>
										<Node score="0" recordCount="2">
											<SimplePredicate field="double(x3)" operator="lessOrEqual" value="-1.5293262004852295"/>
											<ScoreDistribution value="0" recordCount="2"/>
											<ScoreDistribution value="1" recordCount="0"/>
										</Node>
										<Node score="1" recordCount="1">
											<True/>
											<ScoreDistribution value="0" recordCount="0"/>
											<ScoreDistribution value="1" recordCount="1"/>
										</Node>
									</Node>
									<Node>
										<SimplePredicate field="double(x7)" operator="lessOrEqual" value="-0.4901495426893234"/>
										<Node score="1" recordCount="1">
											<SimplePredicate field="double(x9)" operator="lessOrEqual" value="-1.373548686504364"/>
											<ScoreDistribution value="0" recordCount="0"/>
											<ScoreDistribution value="1" recordCount="1"/>
										</Node>
										<Node score="0" recordCount="39">
											<SimplePredicate field="double(x5)" operator="lessOrEqual" value="-1.7805082201957703"/>
											<ScoreDistribution value="0" recordCount="39"/>
											<ScoreDistribution value="1" recordCount="0"/>
										</Node>
										<Node>
											<SimplePredicate field="double(x13)" operator="lessOrEqual" value="-0.3998833894729614"/>
											<Node score="1" recordCount="1">
												<SimplePredicate field="double(x5)" operator="lessOrEqual" value="-1.3918086290359497"/>
												<ScoreDistribution value="0" recordCount="0"/>
												<ScoreDistribution value="1" recordCount="1"/>
											</Node>
											<Node score="0" recordCount="2">
												<True/>
												<ScoreDistribution value="0" recordCount="2"/>
												<ScoreDistribution value="1" recordCount="0"/>
											</Node>
										</Node>
										<Node>
											<SimplePredicate field="double(x7)" operator="lessOrEqual" value="-1.1995720267295837"/>
											<Node score="1" recordCount="1">
												<SimplePredicate field="double(x1)" operator="lessOrEqual" value="-0.7391115725040436"/>
												<ScoreDistribution value="0" recordCount="0"/>
												<ScoreDistribution value="1" recordCount="1"/>
											</Node>
											<Node score="0" recordCount="2">
												<True/>
												<ScoreDistribution value="0" recordCount="2"/>
												<ScoreDistribution value="1" recordCount="0"/>
											</Node>
										</Node>
										<Node>
											<SimplePredicate field="double(x13)" operator="lessOrEqual" value="0.2885296195745468"/>
											<Node>
												<SimplePredicate field="double(x4)" operator="lessOrEqual" value="-2.2733190059661865"/>
												<Node score="0" recordCount="25">
													<SimplePredicate field="double(x1)" operator="lessOrEqual" value="-0.5191738307476044"/>
													<ScoreDistribution value="0" recordCount="25"/>
													<ScoreDistribution value="1" recordCount="0"/>
												</Node>
												<Node>
													<SimplePredicate field="double(x1)" operator="lessOrEqual" value="-0.44586125016212463"/>
													<Node score="0" recordCount="2">
														<SimplePredicate field="double(x3)" operator="lessOrEqual" value="-0.28034891188144684"/>
														<ScoreDistribution value="0" recordCount="2"/>
														<ScoreDistribution value="1" recordCount="0"/>
													</Node>
													<Node score="1" recordCount="1">
														<True/>
														<ScoreDistribution value="0" recordCount="0"/>
														<ScoreDistribution value="1" recordCount="1"/>
													</Node>
												</Node>
												<Node score="0" recordCount="14">
													<True/>
													<ScoreDistribution value="0" recordCount="14"/>
													<ScoreDistribution value="1" recordCount="0"/>
												</Node>
											</Node>
											<Node>
												<SimplePredicate field="double(x3)" operator="lessOrEqual" value="-0.20916353166103363"/>
												<Node score="0" recordCount="3">
													<SimplePredicate field="double(x3)" operator="lessOrEqual" value="-0.31910839676856995"/>
													<ScoreDistribution value="0" recordCount="3"/>
													<ScoreDistribution value="1" recordCount="0"/>
												</Node>
												<Node score="1" recordCount="1">
													<True/>
													<ScoreDistribution value="0" recordCount="0"/>
													<ScoreDistribution value="1" recordCount="1"/>
												</Node>
											</Node>
											<Node score="0" recordCount="4">
												<True/>
												<ScoreDistribution value="0" recordCount="4"/>
												<ScoreDistribution value="1" recordCount="0"/>
											</Node>
										</Node>
										<Node score="0" recordCount="7">
											<SimplePredicate field="double(x1)" operator="lessOrEqual" value="-0.8124241530895233"/>
											<ScoreDistribution value="0" recordCount="7"/>
											<ScoreDistribution value="1" recordCount="0"/>
										</Node>
										<Node>
											<SimplePredicate field="double(x3)" operator="lessOrEqual" value="0.17557481676340103"/>
											<Node>
												<SimplePredicate field="double(x13)" operator="lessOrEqual" value="0.9769425988197327"/>
												<Node>
													<SimplePredicate field="double(x3)" operator="lessOrEqual" value="-0.36009907722473145"/>
													<Node>
														<SimplePredicate field="double(x1)" operator="lessOrEqual" value="-0.3725486546754837"/>
														<Node score="0" recordCount="3">
															<SimplePredicate field="double(x7)" operator="lessOrEqual" value="-0.7266237139701843"/>
															<ScoreDistribution value="0" recordCount="3"/>
															<ScoreDistribution value="1" recordCount="0"/>
														</Node>
														<Node score="0" recordCount="1">
															<SimplePredicate field="double(x13)" operator="lessOrEqual" value="0.5719937831163406"/>
															<ScoreDistribution value="0" recordCount="1"/>
															<ScoreDistribution value="1" recordCount="0"/>
														</Node>
														<Node score="1" recordCount="1">
															<True/>
															<ScoreDistribution value="0" recordCount="0"/>
															<ScoreDistribution value="1" recordCount="1"/>
														</Node>
													</Node>
													<Node score="1" recordCount="1">
														<True/>
														<ScoreDistribution value="0" recordCount="0"/>
														<ScoreDistribution value="1" recordCount="1"/>
													</Node>
												</Node>
												<Node score="0" recordCount="3">
													<True/>
													<ScoreDistribution value="0" recordCount="3"/>
													<ScoreDistribution value="1" recordCount="0"/>
												</Node>
											</Node>
											<Node score="0" recordCount="4">
												<True/>
												<ScoreDistribution value="0" recordCount="4"/>
												<ScoreDistribution value="1" recordCount="0"/>
											</Node>
										</Node>
										<Node score="1" recordCount="1">
											<True/>
											<ScoreDistribution value="0" recordCount="0"/>
											<ScoreDistribution value="1" recordCount="1"/>
										</Node>
									</Node>
									<Node>
										<SimplePredicate field="double(x14)" operator="lessOrEqual" value="-4.5654919147491455"/>
										<Node score="0" recordCount="5">
											<SimplePredicate field="double(x4)" operator="lessOrEqual" value="-1.4981662034988403"/>
											<ScoreDistribution value="0" recordCount="5"/>
											<ScoreDistribution value="1" recordCount="0"/>
										</Node>
										<Node score="1" recordCount="1">
											<True/>
											<ScoreDistribution value="0" recordCount="0"/>
											<ScoreDistribution value="1" recordCount="1"/>
										</Node>
									</Node>
									<Node>
										<SimplePredicate field="double(x13)" operator="lessOrEqual" value="0.6934784352779388"/>
										<Node score="0" recordCount="129">
											<SimplePredicate field="double(x3)" operator="lessOrEqual" value="1.8103373646736145"/>
											<ScoreDistribution value="0" recordCount="129"/>
											<ScoreDistribution value="1" recordCount="0"/>
										</Node>
										<Node score="1" recordCount="1">
											<SimplePredicate field="double(x3)" operator="lessOrEqual" value="1.8709588646888733"/>
											<ScoreDistribution value="0" recordCount="0"/>
											<ScoreDistribution value="1" recordCount="1"/>
										</Node>
										<Node score="0" recordCount="15">
											<True/>
											<ScoreDistribution value="0" recordCount="15"/>
											<ScoreDistribution value="1" recordCount="0"/>
										</Node>
									</Node>
									<Node>
										<SimplePredicate field="double(x1)" operator="lessOrEqual" value="-0.22592347860336304"/>
										<Node>
											<SimplePredicate field="double(x1)" operator="lessOrEqual" value="-1.1789870858192444"/>
											<Node score="0" recordCount="2">
												<SimplePredicate field="double(x4)" operator="lessOrEqual" value="-2.531703233718872"/>
												<ScoreDistribution value="0" recordCount="2"/>
												<ScoreDistribution value="1" recordCount="0"/>
											</Node>
											<Node score="1" recordCount="1">
												<True/>
												<ScoreDistribution value="0" recordCount="0"/>
												<ScoreDistribution value="1" recordCount="1"/>
											</Node>
										</Node>
										<Node score="0" recordCount="26">
											<True/>
											<ScoreDistribution value="0" recordCount="26"/>
											<ScoreDistribution value="1" recordCount="0"/>
										</Node>
									</Node>
									<Node score="1" recordCount="1">
										<SimplePredicate field="double(x4)" operator="lessOrEqual" value="-1.3689740300178528"/>
										<ScoreDistribution value="0" recordCount="0"/>
										<ScoreDistribution value="1" recordCount="1"/>
									</Node>
									<Node score="0" recordCount="1">
										<True/>
										<ScoreDistribution value="0" recordCount="1"/>
										<ScoreDistribution value="1" recordCount="0"/>
									</Node>
								</Node>
								<Node>
									<SimplePredicate field="double(x1)" operator="lessOrEqual" value="2.0467666387557983"/>
									<Node>
										<SimplePredicate field="double(x14)" operator="lessOrEqual" value="0.22765988111495972"/>
										<Node>
											<SimplePredicate field="double(x3)" operator="lessOrEqual" value="0.05900265648961067"/>
											<Node>
												<SimplePredicate field="double(x3)" operator="lessOrEqual" value="0.052612220868468285"/>
												<Node>
													<SimplePredicate field="double(x7)" operator="lessOrEqual" value="0.810458317399025"/>
													<Node score="0" recordCount="30">
														<SimplePredicate field="double(x3)" operator="lessOrEqual" value="-0.3360532373189926"/>
														<ScoreDistribution value="0" recordCount="30"/>
														<ScoreDistribution value="1" recordCount="0"/>
													</Node>
													<Node>
														<SimplePredicate field="double(x3)" operator="lessOrEqual" value="-0.20755288749933243"/>
														<Node score="1" recordCount="2">
															<SimplePredicate field="double(x1)" operator="lessOrEqual" value="1.2036718726158142"/>
															<ScoreDistribution value="0" recordCount="0"/>
															<ScoreDistribution value="1" recordCount="2"/>
														</Node>
														<Node score="0" recordCount="1">
															<True/>
															<ScoreDistribution value="0" recordCount="1"/>
															<ScoreDistribution value="1" recordCount="0"/>
														</Node>
													</Node>
													<Node score="0" recordCount="17">
														<SimplePredicate field="double(x13)" operator="lessOrEqual" value="0.8149631172418594"/>
														<ScoreDistribution value="0" recordCount="17"/>
														<ScoreDistribution value="1" recordCount="0"/>
													</Node>
													<Node score="1" recordCount="1">
														<SimplePredicate field="double(x13)" operator="lessOrEqual" value="1.8273351788520813"/>
														<ScoreDistribution value="0" recordCount="0"/>
														<ScoreDistribution value="1" recordCount="1"/>
													</Node>
													<Node score="0" recordCount="2">
														<True/>
														<ScoreDistribution value="0" recordCount="2"/>
														<ScoreDistribution value="1" recordCount="0"/>
													</Node>
												</Node>
												<Node score="1" recordCount="1">
													<SimplePredicate field="double(x9)" operator="lessOrEqual" value="-1.3735487163066864"/>
													<ScoreDistribution value="0" recordCount="0"/>
													<ScoreDistribution value="1" recordCount="1"/>
												</Node>
												<Node>
													<SimplePredicate field="double(x3)" operator="lessOrEqual" value="-0.6280852556228638"/>
													<Node score="1" recordCount="1">
														<SimplePredicate field="double(x7)" operator="lessOrEqual" value="1.519880771636963"/>
														<ScoreDistribution value="0" recordCount="0"/>
														<ScoreDistribution value="1" recordCount="1"/>
													</Node>
													<Node score="0" recordCount="1">
														<True/>
														<ScoreDistribution value="0" recordCount="1"/>
														<ScoreDistribution value="1" recordCount="0"/>
													</Node>
												</Node>
												<Node score="0" recordCount="4">
													<True/>
													<ScoreDistribution value="0" recordCount="4"/>
													<ScoreDistribution value="1" recordCount="0"/>
												</Node>
											</Node>
											<Node score="1" recordCount="1">
												<True/>
												<ScoreDistribution value="0" recordCount="0"/>
												<ScoreDistribution value="1" recordCount="1"/>
											</Node>
										</Node>
										<Node>
											<SimplePredicate field="double(x3)" operator="lessOrEqual" value="3.016334295272827"/>
											<Node score="0" recordCount="88">
												<SimplePredicate field="double(x5)" operator="lessOrEqual" value="-1.0031090378761292"/>
												<ScoreDistribution value="0" recordCount="88"/>
												<ScoreDistribution value="1" recordCount="0"/>
											</Node>
											<Node>
												<SimplePredicate field="double(x1)" operator="lessOrEqual" value="0.14063943549990654"/>
												<Node>
													<SimplePredicate field="double(x14)" operator="lessOrEqual" value="-2.9038661122322083"/>
													<Node score="0" recordCount="1">
														<SimplePredicate field="double(x7)" operator="lessOrEqual" value="0.5739841908216476"/>
														<ScoreDistribution value="0" recordCount="1"/>
														<ScoreDistribution value="1" recordCount="0"/>
													</Node>
													<Node score="1" recordCount="1">
														<True/>
														<ScoreDistribution value="0" recordCount="0"/>
														<ScoreDistribution value="1" recordCount="1"/>
													</Node>
												</Node>
												<Node score="0" recordCount="2">
													<True/>
													<ScoreDistribution value="0" recordCount="2"/>
													<ScoreDistribution value="1" recordCount="0"/>
												</Node>
											</Node>
											<Node score="0" recordCount="5">
												<True/>
												<ScoreDistribution value="0" recordCount="5"/>
												<ScoreDistribution value="1" recordCount="0"/>
											</Node>
										</Node>
										<Node score="0" recordCount="4">
											<SimplePredicate field="double(x1)" operator="lessOrEqual" value="0.983734130859375"/>
											<ScoreDistribution value="0" recordCount="4"/>
											<ScoreDistribution value="1" recordCount="0"/>
										</Node>
										<Node score="1" recordCount="1">
											<True/>
											<ScoreDistribution value="0" recordCount="0"/>
											<ScoreDistribution value="1" recordCount="1"/>
										</Node>
									</Node>
									<Node>
										<SimplePredicate field="double(x3)" operator="lessOrEqual" value="1.750203788280487"/>
										<Node>
											<SimplePredicate field="double(x5)" operator="lessOrEqual" value="-1.0031090378761292"/>
											<Node>
												<SimplePredicate field="double(x7)" operator="lessOrEqual" value="1.1651695370674133"/>
												<Node>
													<SimplePredicate field="double(x2)" operator="lessOrEqual" value="1.1203144788742065"/>
													<Node>
														<SimplePredicate field="double(x2)" operator="lessOrEqual" value="0.43347177654504776"/>
														<Node>
															<SimplePredicate field="double(x5)" operator="lessOrEqual" value="-2.169207811355591"/>
															<Node>
																<SimplePredicate field="double(x3)" operator="lessOrEqual" value="-1.5079473853111267"/>
																<Node score="0" recordCount="2">
																	<SimplePredicate field="double(x3)" operator="lessOrEqual" value="-1.5151857733726501"/>
																	<ScoreDistribution value="0" recordCount="2"/>
																	<ScoreDistribution value="1" recordCount="0"/>
																</Node>
																<Node score="1" recordCount="1">
																	<True/>
																	<ScoreDistribution value="0" recordCount="0"/>
																	<ScoreDistribution value="1" recordCount="1"/>
																</Node>
															</Node>
															<Node>
																<SimplePredicate field="double(x4)" operator="lessOrEqual" value="-1.4981662034988403"/>
																<Node>
																	<SimplePredicate field="double(x3)" operator="lessOrEqual" value="-0.5272073149681091"/>
																	<Node score="0" recordCount="3">
																		<SimplePredicate field="double(x3)" operator="lessOrEqual" value="-0.7798687517642975"/>
																		<ScoreDistribution value="0" recordCount="3"/>
																		<ScoreDistribution value="1" recordCount="0"/>
																	</Node>
																	<Node score="0" recordCount="1">
																		<SimplePredicate field="double(x13)" operator="lessOrEqual" value="-1.169286161661148"/>
																		<ScoreDistribution value="0" recordCount="1"/>
																		<ScoreDistribution value="1" recordCount="0"/>
																	</Node>
																	<Node score="1" recordCount="2">
																		<True/>
																		<ScoreDistribution value="0" recordCount="0"/>
																		<ScoreDistribution value="1" recordCount="2"/>
																	</Node>
																</Node>
																<Node score="0" recordCount="14">
																	<True/>
																	<ScoreDistribution value="0" recordCount="14"/>
																	<ScoreDistribution value="1" recordCount="0"/>
																</Node>
															</Node>
															<Node score="0" recordCount="67">
																<SimplePredicate field="double(x3)" operator="lessOrEqual" value="0.8365656733512878"/>
																<ScoreDistribution value="0" recordCount="67"/>
																<ScoreDistribution value="1" recordCount="0"/>
															</Node>
															<Node score="1" recordCount="1">
																<SimplePredicate field="double(x3)" operator="lessOrEqual" value="0.8556233048439026"/>
																<ScoreDistribution value="0" recordCount="0"/>
																<ScoreDistribution value="1" recordCount="1"/>
															</Node>
															<Node score="0" recordCount="11">
																<True/>
																<ScoreDistribution value="0" recordCount="11"/>
																<ScoreDistribution value="1" recordCount="0"/>
															</Node>
														</Node>
														<Node>
															<SimplePredicate field="double(x7)" operator="lessOrEqual" value="0.2192729376256466"/>
															<Node>
																<SimplePredicate field="double(x1)" operator="lessOrEqual" value="1.1670156121253967"/>
																<Node score="0" recordCount="10">
																	<SimplePredicate field="double(x9)" operator="lessOrEqual" value="-0.7844766080379486"/>
																	<ScoreDistribution value="0" recordCount="10"/>
																	<ScoreDistribution value="1" recordCount="0"/>
																</Node>
																<Node>
																	<SimplePredicate field="double(x3)" operator="lessOrEqual" value="-0.4816405326128006"/>
																	<Node>
																		<SimplePredicate field="double(x1)" operator="lessOrEqual" value="-0.07929831743240356"/>
																		<Node score="1" recordCount="1">
																			<SimplePredicate field="double(x3)" operator="lessOrEqual" value="-0.607994943857193"/>
																			<ScoreDistribution value="0" recordCount="0"/>
																			<ScoreDistribution value="1" recordCount="1"/>
																		</Node>
																		<Node score="0" recordCount="1">
																			<True/>
																			<ScoreDistribution value="0" recordCount="1"/>
																			<ScoreDistribution value="1" recordCount="0"/>
																		</Node>
																	</Node>
																	<Node>
																		<SimplePredicate field="double(x3)" operator="lessOrEqual" value="-1.0670499205589294"/>
																		<Node score="1" recordCount="1">
																			<SimplePredicate field="double(x2)" operator="lessOrEqual" value="-1.627056360244751"/>
																			<ScoreDistribution value="0" recordCount="0"/>
																			<ScoreDistribution value="1" recordCount="1"/>
																		</Node>
																		<Node>
																			<SimplePredicate field="double(x3)" operator="lessOrEqual" value="-1.0990257859230042"/>
																			<Node score="0" recordCount="9">
																				<SimplePredicate field="double(x1)" operator="lessOrEqual" value="0.8371089696884155"/>
																				<ScoreDistribution value="0" recordCount="9"/>
																				<ScoreDistribution value="1" recordCount="0"/>
																			</Node>
																			<Node score="0" recordCount="2">
																				<SimplePredicate field="double(x3)" operator="lessOrEqual" value="-1.3946059346199036"/>
																				<ScoreDistribution value="0" recordCount="2"/>
																				<ScoreDistribution value="1" recordCount="0"/>
																			</Node>
																			<Node score="1" recordCount="1">
																				<True/>
																				<ScoreDistribution value="0" recordCount="0"/>
																				<ScoreDistribution value="1" recordCount="1"/>
																			</Node>
																		</Node>
																		<Node score="1" recordCount="1">
																			<True/>
																			<ScoreDistribution value="0" recordCount="0"/>
																			<ScoreDistribution value="1" recordCount="1"/>
																		</Node>
																	</Node>
																	<Node score="0" recordCount="16">
																		<True/>
																		<ScoreDistribution value="0" recordCount="16"/>
																		<ScoreDistribution value="1" recordCount="0"/>
																	</Node>
																</Node>
																<Node>
																	<SimplePredicate field="double(x13)" operator="lessOrEqual" value="0.1670449674129486"/>
																	<Node score="1" recordCount="1">
																		<SimplePredicate field="double(x3)" operator="lessOrEqual" value="-0.47004395723342896"/>
																		<ScoreDistribution value="0" recordCount="0"/>
																		<ScoreDistribution value="1" recordCount="1"/>
																	</Node>
																	<Node>
																		<SimplePredicate field="double(x4)" operator="lessOrEqual" value="-2.531703233718872"/>
																		<Node>
																			<SimplePredicate field="double(x3)" operator="lessOrEqual" value="0.2142964005470276"/>
																			<Node>
																				<SimplePredicate field="double(x3)" operator="lessOrEqual" value="0.0713713951408863"/>
																				<Node score="0" recordCount="4">
																					<SimplePredicate field="double(x1)" operator="lessOrEqual" value="0.36057719588279724"/>
																					<ScoreDistribution value="0" recordCount="4"/>
																					<ScoreDistribution value="1" recordCount="0"/>
																				</Node>
																				<Node>
																					<SimplePredicate field="double(x7)" operator="lessOrEqual" value="-0.37191246822476387"/>
																					<Node>
																						<SimplePredicate field="double(x3)" operator="lessOrEqual" value="-0.17803561314940453"/>
																						<Node score="0" recordCount="1">
																							<SimplePredicate field="double(x1)" operator="lessOrEqual" value="0.7271400988101959"/>
																							<ScoreDistribution value="0" recordCount="1"/>
																							<ScoreDistribution value="1" recordCount="0"/>
																						</Node>
																						<Node score="1" recordCount="1">
																							<True/>
																							<ScoreDistribution value="0" recordCount="0"/>
																							<ScoreDistribution value="1" recordCount="1"/>
																						</Node>
																					</Node>
																					<Node score="0" recordCount="2">
																						<True/>
																						<ScoreDistribution value="0" recordCount="2"/>
																						<ScoreDistribution value="1" recordCount="0"/>
																					</Node>
																				</Node>
																				<Node score="1" recordCount="2">
																					<True/>
																					<ScoreDistribution value="0" recordCount="0"/>
																					<ScoreDistribution value="1" recordCount="2"/>
																				</Node>
																			</Node>
																			<Node score="1" recordCount="3">
																				<True/>
																				<ScoreDistribution value="0" recordCount="0"/>
																				<ScoreDistribution value="1" recordCount="3"/>
																			</Node>
																		</Node>
																		<Node score="0" recordCount="5">
																			<True/>
																			<ScoreDistribution value="0" recordCount="5"/>
																			<ScoreDistribution value="1" recordCount="0"/>
																		</Node>
																	</Node>
																	<Node score="0" recordCount="21">
																		<SimplePredicate field="double(x3)" operator="lessOrEqual" value="0.8882197439670563"/>
																		<ScoreDistribution value="0" recordCount="21"/>
																		<ScoreDistribution value="1" recordCount="0"/>
																	</Node>
																	<Node score="1" recordCount="1">
																		<SimplePredicate field="double(x1)" operator="lessOrEqual" value="0.690483808517456"/>
																		<ScoreDistribution value="0" recordCount="0"/>
																		<ScoreDistribution value="1" recordCount="1"/>
																	</Node>
																	<Node score="0" recordCount="1">
																		<True/>
																		<ScoreDistribution value="0" recordCount="1"/>
																		<ScoreDistribution value="1" recordCount="0"/>
																	</Node>
																</Node>
																<Node>
																	<SimplePredicate field="double(x7)" operator="lessOrEqual" value="-0.7266237139701843"/>
																	<Node>
																		<SimplePredicate field="double(x3)" operator="lessOrEqual" value="1.3421870470046997"/>
																		<Node score="0" recordCount="7">
																			<SimplePredicate field="double(x1)" operator="lessOrEqual" value="0.8737652599811554"/>
																			<ScoreDistribution value="0" recordCount="7"/>
																			<ScoreDistribution value="1" recordCount="0"/>
																		</Node>
																		<Node score="1" recordCount="1">
																			<SimplePredicate field="double(x1)" operator="lessOrEqual" value="0.9837341606616974"/>
																			<ScoreDistribution value="0" recordCount="0"/>
																			<ScoreDistribution value="1" recordCount="1"/>
																		</Node>
																		<Node score="0" recordCount="1">
																			<True/>
																			<ScoreDistribution value="0" recordCount="1"/>
																			<ScoreDistribution value="1" recordCount="0"/>
																		</Node>
																	</Node>
																	<Node score="1" recordCount="1">
																		<True/>
																		<ScoreDistribution value="0" recordCount="0"/>
																		<ScoreDistribution value="1" recordCount="1"/>
																	</Node>
																</Node>
																<Node>
																	<SimplePredicate field="double(x3)" operator="lessOrEqual" value="-0.1020609587430954"/>
																	<Node score="1" recordCount="4">
																		<SimplePredicate field="double(x13)" operator="lessOrEqual" value="1.1794170141220093"/>
																		<ScoreDistribution value="0" recordCount="0"/>
																		<ScoreDistribution value="1" recordCount="4"/>
																	</Node>
																	<Node score="0" recordCount="1">
																		<True/>
																		<ScoreDistribution value="0" recordCount="1"/>
																		<ScoreDistribution value="1" recordCount="0"/>
																	</Node>
																</Node>
																<Node score="0" recordCount="4">
																	<SimplePredicate field="double(x5)" operator="lessOrEqual" value="-1.3918086290359497"/>
																	<ScoreDistribution value="0" recordCount="4"/>
																	<ScoreDistribution value="1" recordCount="0"/>
																</Node>
																<Node score="0" recordCount="1">
																	<SimplePredicate field="double(x7)" operator="lessOrEqual" value="-0.37191247195005417"/>
																	<ScoreDistribution value="0" recordCount="1"/>
																	<ScoreDistribution value="1" recordCount="0"/>
																</Node>
																<Node score="1" recordCount="3">
																	<True/>
																	<ScoreDistribution value="0" recordCount="0"/>
																	<ScoreDistribution value="1" recordCount="3"/>
																</Node>
															</Node>
															<Node>
																<SimplePredicate field="double(x9)" operator="lessOrEqual" value="-0.7844766080379486"/>
																<Node>
																	<SimplePredicate field="double(x7)" operator="lessOrEqual" value="-0.490149550139904"/>
																	<Node score="1" recordCount="2">
																		<SimplePredicate field="double(x1)" operator="lessOrEqual" value="1.5335785150527954"/>
																		<ScoreDistribution value="0" recordCount="0"/>
																		<ScoreDistribution value="1" recordCount="2"/>
																	</Node>
																	<Node score="0" recordCount="2">
																		<SimplePredicate field="double(x5)" operator="lessOrEqual" value="-1.3918086290359497"/>
																		<ScoreDistribution value="0" recordCount="2"/>
																		<ScoreDistribution value="1" recordCount="0"/>
																	</Node>
																	<Node score="1" recordCount="1">
																		<True/>
																		<ScoreDistribution value="0" recordCount="0"/>
																		<ScoreDistribution value="1" recordCount="1"/>
																	</Node>
																</Node>
																<Node score="0" recordCount="5">
																	<True/>
																	<ScoreDistribution value="0" recordCount="5"/>
																	<ScoreDistribution value="1" recordCount="0"/>
																</Node>
															</Node>
															<Node>
																<SimplePredicate field="double(x13)" operator="lessOrEqual" value="1.2199119329452515"/>
																<Node>
																	<SimplePredicate field="double(x3)" operator="lessOrEqual" value="-1.437235713005066"/>
																	<Node score="1" recordCount="1">
																		<SimplePredicate field="double(x4)" operator="lessOrEqual" value="-2.531703233718872"/>
																		<ScoreDistribution value="0" recordCount="0"/>
																		<ScoreDistribution value="1" recordCount="1"/>
																	</Node>
																	<Node score="0" recordCount="2">
																		<True/>
																		<ScoreDistribution value="0" recordCount="2"/>
																		<ScoreDistribution value="1" recordCount="0"/>
																	</Node>
																</Node>
																<Node>
																	<SimplePredicate field="double(x13)" operator="lessOrEqual" value="0.6934784352779388"/>
																	<Node>
																		<SimplePredicate field="double(x3)" operator="lessOrEqual" value="-0.8743183612823486"/>
																		<Node score="0" recordCount="6">
																			<SimplePredicate field="double(x3)" operator="lessOrEqual" value="-0.9010596573352814"/>
																			<ScoreDistribution value="0" recordCount="6"/>
																			<ScoreDistribution value="1" recordCount="0"/>
																		</Node>
																		<Node score="1" recordCount="1">
																			<True/>
																			<ScoreDistribution value="0" recordCount="0"/>
																			<ScoreDistribution value="1" recordCount="1"/>
																		</Node>
																	</Node>
																	<Node score="0" recordCount="42">
																		<True/>
																		<ScoreDistribution value="0" recordCount="42"/>
																		<ScoreDistribution value="1" recordCount="0"/>
																	</Node>
																</Node>
																<Node score="0" recordCount="5">
																	<SimplePredicate field="double(x7)" operator="lessOrEqual" value="-0.2536753788590431"/>
																	<ScoreDistribution value="0" recordCount="5"/>
																	<ScoreDistribution value="1" recordCount="0"/>
																</Node>
																<Node score="1" recordCount="1">
																	<True/>
																	<ScoreDistribution value="0" recordCount="0"/>
																	<ScoreDistribution value="1" recordCount="1"/>
																</Node>
															</Node>
															<Node score="1" recordCount="1">
																<SimplePredicate field="double(x1)" operator="lessOrEqual" value="1.900141417980194"/>
																<ScoreDistribution value="0" recordCount="0"/>
																<ScoreDistribution value="1" recordCount="1"/>
															</Node>
															<Node score="0" recordCount="1">
																<True/>
																<ScoreDistribution value="0" recordCount="1"/>
																<ScoreDistribution value="1" recordCount="0"/>
															</Node>
														</Node>
														<Node>
															<SimplePredicate field="double(x11)" operator="lessOrEqual" value="0.36341044306755066"/>
															<Node>
																<SimplePredicate field="double(x3)" operator="lessOrEqual" value="-1.0809582471847534"/>
																<Node score="0" recordCount="2">
																	<SimplePredicate field="double(x3)" operator="lessOrEqual" value="-1.1532095074653625"/>
																	<ScoreDistribution value="0" recordCount="2"/>
																	<ScoreDistribution value="1" recordCount="0"/>
																</Node>
																<Node score="1" recordCount="1">
																	<True/>
																	<ScoreDistribution value="0" recordCount="0"/>
																	<ScoreDistribution value="1" recordCount="1"/>
																</Node>
															</Node>
															<Node score="0" recordCount="34">
																<True/>
																<ScoreDistribution value="0" recordCount="34"/>
																<ScoreDistribution value="1" recordCount="0"/>
															</Node>
														</Node>
														<Node score="1" recordCount="1">
															<True/>
															<ScoreDistribution value="0" recordCount="0"/>
															<ScoreDistribution value="1" recordCount="1"/>
														</Node>
													</Node>
													<Node score="1" recordCount="3">
														<SimplePredicate field="double(x7)" operator="lessOrEqual" value="-0.7266237139701843"/>
														<ScoreDistribution value="0" recordCount="0"/>
														<ScoreDistribution value="1" recordCount="3"/>
													</Node>
													<Node score="0" recordCount="3">
														<SimplePredicate field="double(x7)" operator="lessOrEqual" value="-0.13543829694390297"/>
														<ScoreDistribution value="0" recordCount="3"/>
														<ScoreDistribution value="1" recordCount="0"/>
													</Node>
													<Node score="1" recordCount="1">
														<True/>
														<ScoreDistribution value="0" recordCount="0"/>
														<ScoreDistribution value="1" recordCount="1"/>
													</Node>
												</Node>
												<Node>
													<SimplePredicate field="double(x1)" operator="lessOrEqual" value="1.9734540581703186"/>
													<Node score="0" recordCount="52">
														<SimplePredicate field="double(x13)" operator="lessOrEqual" value="1.422386348247528"/>
														<ScoreDistribution value="0" recordCount="52"/>
														<ScoreDistribution value="1" recordCount="0"/>
													</Node>
													<Node score="0" recordCount="10">
														<SimplePredicate field="double(x1)" operator="lessOrEqual" value="1.6802036762237549"/>
														<ScoreDistribution value="0" recordCount="10"/>
														<ScoreDistribution value="1" recordCount="0"/>
													</Node>
													<Node score="1" recordCount="1">
														<True/>
														<ScoreDistribution value="0" recordCount="0"/>
														<ScoreDistribution value="1" recordCount="1"/>
													</Node>
												</Node>
												<Node score="0" recordCount="1">
													<SimplePredicate field="double(x5)" operator="lessOrEqual" value="-2.169207811355591"/>
													<ScoreDistribution value="0" recordCount="1"/>
													<ScoreDistribution value="1" recordCount="0"/>
												</Node>
												<Node score="1" recordCount="1">
													<True/>
													<ScoreDistribution value="0" recordCount="0"/>
													<ScoreDistribution value="1" recordCount="1"/>
												</Node>
											</Node>
											<Node>
												<SimplePredicate field="double(x11)" operator="lessOrEqual" value="0.42617128789424896"/>
												<Node>
													<SimplePredicate field="double(x1)" operator="lessOrEqual" value="0.6538275182247162"/>
													<Node>
														<SimplePredicate field="double(x13)" operator="lessOrEqual" value="2.1917890906333923"/>
														<Node score="0" recordCount="20">
															<SimplePredicate field="double(x3)" operator="lessOrEqual" value="0.06411405839025974"/>
															<ScoreDistribution value="0" recordCount="20"/>
															<ScoreDistribution value="1" recordCount="0"/>
														</Node>
														<Node score="1" recordCount="1">
															<SimplePredicate field="double(x7)" operator="lessOrEqual" value="1.519880771636963"/>
															<ScoreDistribution value="0" recordCount="0"/>
															<ScoreDistribution value="1" recordCount="1"/>
														</Node>
														<Node score="1" recordCount="1">
															<SimplePredicate field="double(x3)" operator="lessOrEqual" value="0.0799030289053917"/>
															<ScoreDistribution value="0" recordCount="0"/>
															<ScoreDistribution value="1" recordCount="1"/>
														</Node>
														<Node score="0" recordCount="11">
															<True/>
															<ScoreDistribution value="0" recordCount="11"/>
															<ScoreDistribution value="1" recordCount="0"/>
														</Node>
													</Node>
													<Node score="1" recordCount="1">
														<True/>
														<ScoreDistribution value="0" recordCount="0"/>
														<ScoreDistribution value="1" recordCount="1"/>
													</Node>
												</Node>
												<Node>
													<SimplePredicate field="double(x3)" operator="lessOrEqual" value="1.2953032851219177"/>
													<Node>
														<SimplePredicate field="double(x1)" operator="lessOrEqual" value="0.7271400988101959"/>
														<Node score="1" recordCount="2">
															<SimplePredicate field="double(x4)" operator="lessOrEqual" value="-1.8857426047325134"/>
															<ScoreDistribution value="0" recordCount="0"/>
															<ScoreDistribution value="1" recordCount="2"/>
														</Node>
														<Node score="0" recordCount="1">
															<True/>
															<ScoreDistribution value="0" recordCount="1"/>
															<ScoreDistribution value="1" recordCount="0"/>
														</Node>
													</Node>
													<Node>
														<SimplePredicate field="double(x13)" operator="lessOrEqual" value="1.2199118733406067"/>
														<Node>
															<SimplePredicate field="double(x4)" operator="lessOrEqual" value="-2.531703233718872"/>
															<Node score="0" recordCount="7">
																<SimplePredicate field="double(x7)" operator="lessOrEqual" value="1.519880771636963"/>
																<ScoreDistribution value="0" recordCount="7"/>
																<ScoreDistribution value="1" recordCount="0"/>
															</Node>
															<Node>
																<SimplePredicate field="double(x1)" operator="lessOrEqual" value="1.4602659344673157"/>
																<Node>
																	<SimplePredicate field="double(x1)" operator="lessOrEqual" value="1.0570467114448547"/>
																	<Node score="1" recordCount="2">
																		<SimplePredicate field="double(x13)" operator="lessOrEqual" value="0.24803473055362701"/>
																		<ScoreDistribution value="0" recordCount="0"/>
																		<ScoreDistribution value="1" recordCount="2"/>
																	</Node>
																	<Node score="0" recordCount="1">
																		<True/>
																		<ScoreDistribution value="0" recordCount="1"/>
																		<ScoreDistribution value="1" recordCount="0"/>
																	</Node>
																</Node>
																<Node score="0" recordCount="5">
																	<True/>
																	<ScoreDistribution value="0" recordCount="5"/>
																	<ScoreDistribution value="1" recordCount="0"/>
																</Node>
															</Node>
															<Node>
																<SimplePredicate field="double(x13)" operator="lessOrEqual" value="0.5719937831163406"/>
																<Node score="1" recordCount="3">
																	<SimplePredicate field="double(x1)" operator="lessOrEqual" value="1.5335785150527954"/>
																	<ScoreDistribution value="0" recordCount="0"/>
																	<ScoreDistribution value="1" recordCount="3"/>
																</Node>
																<Node score="0" recordCount="1">
																	<SimplePredicate field="double(x1)" operator="lessOrEqual" value="1.7168599367141724"/>
																	<ScoreDistribution value="0" recordCount="1"/>
																	<ScoreDistribution value="1" recordCount="0"/>
																</Node>
																<Node score="1" recordCount="1">
																	<True/>
																	<ScoreDistribution value="0" recordCount="0"/>
																	<ScoreDistribution value="1" recordCount="1"/>
																</Node>
															</Node>
															<Node score="0" recordCount="1">
																<True/>
																<ScoreDistribution value="0" recordCount="1"/>
																<ScoreDistribution value="1" recordCount="0"/>
															</Node>
														</Node>
														<Node>
															<SimplePredicate field="double(x2)" operator="lessOrEqual" value="1.1203144788742065"/>
															<Node>
																<SimplePredicate field="double(x3)" operator="lessOrEqual" value="-0.6362663209438324"/>
																<Node>
																	<SimplePredicate field="double(x3)" operator="lessOrEqual" value="-0.6663568019866943"/>
																	<Node>
																		<SimplePredicate field="double(x1)" operator="lessOrEqual" value="1.1670156121253967"/>
																		<Node score="1" recordCount="1">
																			<SimplePredicate field="double(x3)" operator="lessOrEqual" value="-1.0834783911705017"/>
																			<ScoreDistribution value="0" recordCount="0"/>
																			<ScoreDistribution value="1" recordCount="1"/>
																		</Node>
																		<Node score="0" recordCount="2">
																			<True/>
																			<ScoreDistribution value="0" recordCount="2"/>
																			<ScoreDistribution value="1" recordCount="0"/>
																		</Node>
																	</Node>
																	<Node score="0" recordCount="10">
																		<True/>
																		<ScoreDistribution value="0" recordCount="10"/>
																		<ScoreDistribution value="1" recordCount="0"/>
																	</Node>
																</Node>
																<Node score="1" recordCount="1">
																	<True/>
																	<ScoreDistribution value="0" recordCount="0"/>
																	<ScoreDistribution value="1" recordCount="1"/>
																</Node>
															</Node>
															<Node score="0" recordCount="22">
																<True/>
																<ScoreDistribution value="0" recordCount="22"/>
																<ScoreDistribution value="1" recordCount="0"/>
															</Node>
														</Node>
														<Node score="1" recordCount="1">
															<SimplePredicate field="double(x3)" operator="lessOrEqual" value="-0.7171155512332916"/>
															<ScoreDistribution value="0" recordCount="0"/>
															<ScoreDistribution value="1" recordCount="1"/>
														</Node>
														<Node score="0" recordCount="4">
															<SimplePredicate field="double(x1)" operator="lessOrEqual" value="1.5335785150527954"/>
															<ScoreDistribution value="0" recordCount="4"/>
															<ScoreDistribution value="1" recordCount="0"/>
														</Node>
														<Node score="0" recordCount="1">
															<SimplePredicate field="double(x5)" operator="lessOrEqual" value="-2.5579073429107666"/>
															<ScoreDistribution value="0" recordCount="1"/>
															<ScoreDistribution value="1" recordCount="0"/>
														</Node>
														<Node score="1" recordCount="2">
															<True/>
															<ScoreDistribution value="0" recordCount="0"/>
															<ScoreDistribution value="1" recordCount="2"/>
														</Node>
													</Node>
													<Node>
														<SimplePredicate field="double(x1)" operator="lessOrEqual" value="1.6068910956382751"/>
														<Node>
															<SimplePredicate field="double(x2)" operator="lessOrEqual" value="0.43347177654504776"/>
															<Node score="1" recordCount="2">
																<SimplePredicate field="double(x5)" operator="lessOrEqual" value="-1.7805082201957703"/>
																<ScoreDistribution value="0" recordCount="0"/>
																<ScoreDistribution value="1" recordCount="2"/>
															</Node>
															<Node score="0" recordCount="3">
																<SimplePredicate field="double(x3)" operator="lessOrEqual" value="-0.4122884273529053"/>
																<ScoreDistribution value="0" recordCount="3"/>
																<ScoreDistribution value="1" recordCount="0"/>
															</Node>
															<Node score="1" recordCount="1">
																<True/>
																<ScoreDistribution value="0" recordCount="0"/>
																<ScoreDistribution value="1" recordCount="1"/>
															</Node>
														</Node>
														<Node score="0" recordCount="6">
															<True/>
															<ScoreDistribution value="0" recordCount="6"/>
															<ScoreDistribution value="1" recordCount="0"/>
														</Node>
													</Node>
													<Node score="1" recordCount="2">
														<True/>
														<ScoreDistribution value="0" recordCount="0"/>
														<ScoreDistribution value="1" recordCount="2"/>
													</Node>
												</Node>
												<Node score="1" recordCount="1">
													<True/>
													<ScoreDistribution value="0" recordCount="0"/>
													<ScoreDistribution value="1" recordCount="1"/>
												</Node>
											</Node>
											<Node score="1" recordCount="1">
												<True/>
												<ScoreDistribution value="0" recordCount="0"/>
												<ScoreDistribution value="1" recordCount="1"/>
											</Node>
										</Node>
										<Node score="0" recordCount="7">
											<SimplePredicate field="double(x2)" operator="lessOrEqual" value="-0.5967923030257225"/>
											<ScoreDistribution value="0" recordCount="7"/>
											<ScoreDistribution value="1" recordCount="0"/>
										</Node>
										<Node>
											<SimplePredicate field="double(x1)" operator="lessOrEqual" value="1.6802036762237549"/>
											<Node>
												<SimplePredicate field="double(x7)" operator="lessOrEqual" value="-0.37191247195005417"/>
												<Node>
													<SimplePredicate field="double(x13)" operator="lessOrEqual" value="0.6934784352779388"/>
													<Node>
														<SimplePredicate field="double(x3)" operator="lessOrEqual" value="-1.4318353533744812"/>
														<Node score="0" recordCount="1">
															<SimplePredicate field="double(x3)" operator="lessOrEqual" value="-1.4916894435882568"/>
															<ScoreDistribution value="0" recordCount="1"/>
															<ScoreDistribution value="1" recordCount="0"/>
														</Node>
														<Node score="1" recordCount="1">
															<True/>
															<ScoreDistribution value="0" recordCount="0"/>
															<ScoreDistribution value="1" recordCount="1"/>
														</Node>
													</Node>
													<Node score="0" recordCount="9">
														<True/>
														<ScoreDistribution value="0" recordCount="9"/>
														<ScoreDistribution value="1" recordCount="0"/>
													</Node>
												</Node>
												<Node score="1" recordCount="1">
													<SimplePredicate field="double(x1)" operator="lessOrEqual" value="0.25060831382870674"/>
													<ScoreDistribution value="0" recordCount="0"/>
													<ScoreDistribution value="1" recordCount="1"/>
												</Node>
												<Node score="0" recordCount="3">
													<SimplePredicate field="double(x1)" operator="lessOrEqual" value="0.8371089696884155"/>
													<ScoreDistribution value="0" recordCount="3"/>
													<ScoreDistribution value="1" recordCount="0"/>
												</Node>
												<Node score="1" recordCount="1">
													<True/>
													<ScoreDistribution value="0" recordCount="0"/>
													<ScoreDistribution value="1" recordCount="1"/>
												</Node>
											</Node>
											<Node>
												<SimplePredicate field="double(x3)" operator="lessOrEqual" value="-0.4174993187189102"/>
												<Node score="0" recordCount="6">
													<SimplePredicate field="double(x1)" operator="lessOrEqual" value="1.0937030017375946"/>
													<ScoreDistribution value="0" recordCount="6"/>
													<ScoreDistribution value="1" recordCount="0"/>
												</Node>
												<Node score="1" recordCount="1">
													<True/>
													<ScoreDistribution value="0" recordCount="0"/>
													<ScoreDistribution value="1" recordCount="1"/>
												</Node>
											</Node>
											<Node score="1" recordCount="4">
												<True/>
												<ScoreDistribution value="0" recordCount="0"/>
												<ScoreDistribution value="1" recordCount="4"/>
											</Node>
										</Node>
										<Node score="1" recordCount="2">
											<True/>
											<ScoreDistribution value="0" recordCount="0"/>
											<ScoreDistribution value="1" recordCount="2"/>
										</Node>
									</Node>
									<Node>
										<SimplePredicate field="double(x2)" operator="lessOrEqual" value="1.1203144788742065"/>
										<Node>
											<SimplePredicate field="double(x3)" operator="lessOrEqual" value="2.4098161458969116"/>
											<Node>
												<SimplePredicate field="double(x7)" operator="lessOrEqual" value="0.810458317399025"/>
												<Node>
													<SimplePredicate field="double(x13)" operator="lessOrEqual" value="0.369519367814064"/>
													<Node>
														<SimplePredicate field="double(x7)" operator="lessOrEqual" value="-0.017201226204633713"/>
														<Node>
															<SimplePredicate field="double(x1)" operator="lessOrEqual" value="1.8268288373947144"/>
															<Node score="0" recordCount="6">
																<SimplePredicate field="double(x11)" operator="lessOrEqual" value="0.06416244804859161"/>
																<ScoreDistribution value="0" recordCount="6"/>
																<ScoreDistribution value="1" recordCount="0"/>
															</Node>
															<Node score="1" recordCount="1">
																<True/>
																<ScoreDistribution value="0" recordCount="0"/>
																<ScoreDistribution value="1" recordCount="1"/>
															</Node>
														</Node>
														<Node score="1" recordCount="1">
															<True/>
															<ScoreDistribution value="0" recordCount="0"/>
															<ScoreDistribution value="1" recordCount="1"/>
														</Node>
													</Node>
													<Node score="1" recordCount="2">
														<True/>
														<ScoreDistribution value="0" recordCount="0"/>
														<ScoreDistribution value="1" recordCount="2"/>
													</Node>
												</Node>
												<Node score="1" recordCount="3">
													<True/>
													<ScoreDistribution value="0" recordCount="0"/>
													<ScoreDistribution value="1" recordCount="3"/>
												</Node>
											</Node>
											<Node score="0" recordCount="3">
												<True/>
												<ScoreDistribution value="0" recordCount="3"/>
												<ScoreDistribution value="1" recordCount="0"/>
											</Node>
										</Node>
										<Node score="0" recordCount="7">
											<True/>
											<ScoreDistribution value="0" recordCount="7"/>
											<ScoreDistribution value="1" recordCount="0"/>
										</Node>
									</Node>
									<Node score="1" recordCount="2">
										<True/>
										<ScoreDistribution value="0" recordCount="0"/>
										<ScoreDistribution value="1" recordCount="2"/>
									</Node>
								</Node>
								<Node score="0" recordCount="90">
									<True/>
									<ScoreDistribution value="0" recordCount="90"/>
									<ScoreDistribution value="1" recordCount="0"/>
								</Node>
							</Node>
							<Node>
								<SimplePredicate field="double(x12)" operator="lessOrEqual" value="4.720628023147583"/>
								<Node score="0" recordCount="1">
									<SimplePredicate field="double(x9)" operator="lessOrEqual" value="-3.1407649517059326"/>
									<ScoreDistribution value="0" recordCount="1"/>
									<ScoreDistribution value="1" recordCount="0"/>
								</Node>
								<Node score="1" recordCount="13">
									<True/>
									<ScoreDistribution value="0" recordCount="0"/>
									<ScoreDistribution value="1" recordCount="13"/>
								</Node>
							</Node>
							<Node score="0" recordCount="11">
								<True/>
								<ScoreDistribution value="0" recordCount="11"/>
								<ScoreDistribution value="1" recordCount="0"/>
							</Node>
						</Node>
						<Node>
							<SimplePredicate field="double(x1)" operator="lessOrEqual" value="-0.22592347860336304"/>
							<Node>
								<SimplePredicate field="double(x1)" operator="lessOrEqual" value="-0.6657989919185638"/>
								<Node>
									<SimplePredicate field="double(x5)" operator="lessOrEqual" value="-0.2257098238915205"/>
									<Node>
										<SimplePredicate field="double(x12)" operator="lessOrEqual" value="4.235461235046387"/>
										<Node>
											<SimplePredicate field="double(x2)" operator="lessOrEqual" value="0.43347177654504776"/>
											<Node>
												<SimplePredicate field="double(x14)" operator="lessOrEqual" value="-4.5654919147491455"/>
												<Node score="0" recordCount="1">
													<SimplePredicate field="double(x9)" operator="lessOrEqual" value="-0.7844766080379486"/>
													<ScoreDistribution value="0" recordCount="1"/>
													<ScoreDistribution value="1" recordCount="0"/>
												</Node>
												<Node score="1" recordCount="1">
													<True/>
													<ScoreDistribution value="0" recordCount="0"/>
													<ScoreDistribution value="1" recordCount="1"/>
												</Node>
											</Node>
											<Node>
												<SimplePredicate field="double(x1)" operator="lessOrEqual" value="-0.9590493142604828"/>
												<Node>
													<SimplePredicate field="double(x11)" operator="lessOrEqual" value="0.4070112854242325"/>
													<Node>
														<SimplePredicate field="double(x14)" operator="lessOrEqual" value="-0.9226966053247452"/>
														<Node score="0" recordCount="3">
															<SimplePredicate field="double(x13)" operator="lessOrEqual" value="0.9364477246999741"/>
															<ScoreDistribution value="0" recordCount="3"/>
															<ScoreDistribution value="1" recordCount="0"/>
														</Node>
														<Node score="1" recordCount="1">
															<True/>
															<ScoreDistribution value="0" recordCount="0"/>
															<ScoreDistribution value="1" recordCount="1"/>
														</Node>
													</Node>
													<Node score="0" recordCount="109">
														<SimplePredicate field="double(x7)" operator="lessOrEqual" value="1.6381178498268127"/>
														<ScoreDistribution value="0" recordCount="109"/>
														<ScoreDistribution value="1" recordCount="0"/>
													</Node>
													<Node score="0" recordCount="10">
														<SimplePredicate field="double(x13)" operator="lessOrEqual" value="0.1265500783920288"/>
														<ScoreDistribution value="0" recordCount="10"/>
														<ScoreDistribution value="1" recordCount="0"/>
													</Node>
													<Node score="1" recordCount="1">
														<SimplePredicate field="double(x13)" operator="lessOrEqual" value="0.3290244936943054"/>
														<ScoreDistribution value="0" recordCount="0"/>
														<ScoreDistribution value="1" recordCount="1"/>
													</Node>
													<Node score="1" recordCount="1">
														<SimplePredicate field="double(x1)" operator="lessOrEqual" value="-1.142330825328827"/>
														<ScoreDistribution value="0" recordCount="0"/>
														<ScoreDistribution value="1" recordCount="1"/>
													</Node>
													<Node score="0" recordCount="3">
														<True/>
														<ScoreDistribution value="0" recordCount="3"/>
														<ScoreDistribution value="1" recordCount="0"/>
													</Node>
												</Node>
												<Node score="1" recordCount="1">
													<True/>
													<ScoreDistribution value="0" recordCount="0"/>
													<ScoreDistribution value="1" recordCount="1"/>
												</Node>
											</Node>
											<Node>
												<SimplePredicate field="double(x3)" operator="lessOrEqual" value="0.8446756899356842"/>
												<Node>
													<SimplePredicate field="double(x3)" operator="lessOrEqual" value="0.8077684342861176"/>
													<Node>
														<SimplePredicate field="double(x3)" operator="lessOrEqual" value="0.6986715495586395"/>
														<Node>
															<SimplePredicate field="double(x13)" operator="lessOrEqual" value="0.0455603152513504"/>
															<Node score="1" recordCount="1">
																<SimplePredicate field="double(x6)" operator="lessOrEqual" value="-0.7381737232208252"/>
																<ScoreDistribution value="0" recordCount="0"/>
																<ScoreDistribution value="1" recordCount="1"/>
															</Node>
															<Node>
																<SimplePredicate field="double(x11)" operator="lessOrEqual" value="0.2594860941171646"/>
																<Node>
																	<SimplePredicate field="double(x3)" operator="lessOrEqual" value="0.1823442280292511"/>
																	<Node>
																		<SimplePredicate field="double(x3)" operator="lessOrEqual" value="0.1531064435839653"/>
																		<Node>
																			<SimplePredicate field="double(x2)" operator="lessOrEqual" value="-1.627056360244751"/>
																			<Node score="0" recordCount="1">
																				<SimplePredicate field="double(x3)" operator="lessOrEqual" value="-0.5438821464776993"/>
																				<ScoreDistribution value="0" recordCount="1"/>
																				<ScoreDistribution value="1" recordCount="0"/>
																			</Node>
																			<Node score="1" recordCount="1">
																				<True/>
																				<ScoreDistribution value="0" recordCount="0"/>
																				<ScoreDistribution value="1" recordCount="1"/>
																			</Node>
																		</Node>
																		<Node score="0" recordCount="13">
																			<SimplePredicate field="double(x3)" operator="lessOrEqual" value="-1.2067773938179016"/>
																			<ScoreDistribution value="0" recordCount="13"/>
																			<ScoreDistribution value="1" recordCount="0"/>
																		</Node>
																		<Node score="1" recordCount="1">
																			<SimplePredicate field="double(x3)" operator="lessOrEqual" value="-1.1766347885131836"/>
																			<ScoreDistribution value="0" recordCount="0"/>
																			<ScoreDistribution value="1" recordCount="1"/>
																		</Node>
																		<Node>
																			<SimplePredicate field="double(x3)" operator="lessOrEqual" value="-0.27146197855472565"/>
																			<Node>
																				<SimplePredicate field="double(x3)" operator="lessOrEqual" value="-0.3703360855579376"/>
																				<Node>
																					<SimplePredicate field="double(x1)" operator="lessOrEqual" value="-0.885736733675003"/>
																					<Node>
																						<SimplePredicate field="double(x7)" operator="lessOrEqual" value="0.9286953918635845"/>
																						<Node score="0" recordCount="4">
																							<SimplePredicate field="double(x3)" operator="lessOrEqual" value="-0.7014923691749573"/>
																							<ScoreDistribution value="0" recordCount="4"/>
																							<ScoreDistribution value="1" recordCount="0"/>
																						</Node>
																						<Node score="1" recordCount="1">
																							<SimplePredicate field="double(x3)" operator="lessOrEqual" value="-0.6679721772670746"/>
																							<ScoreDistribution value="0" recordCount="0"/>
																							<ScoreDistribution value="1" recordCount="1"/>
																						</Node>
																						<Node score="0" recordCount="1">
																							<True/>
																							<ScoreDistribution value="0" recordCount="1"/>
																							<ScoreDistribution value="1" recordCount="0"/>
																						</Node>
																					</Node>
																					<Node score="1" recordCount="1">
																						<True/>
																						<ScoreDistribution value="0" recordCount="0"/>
																						<ScoreDistribution value="1" recordCount="1"/>
																					</Node>
																				</Node>
																				<Node score="0" recordCount="19">
																					<SimplePredicate field="double(x3)" operator="lessOrEqual" value="-0.5515610873699188"/>
																					<ScoreDistribution value="0" recordCount="19"/>
																					<ScoreDistribution value="1" recordCount="0"/>
																				</Node>
																				<Node score="1" recordCount="1">
																					<SimplePredicate field="double(x3)" operator="lessOrEqual" value="-0.5400213301181793"/>
																					<ScoreDistribution value="0" recordCount="0"/>
																					<ScoreDistribution value="1" recordCount="1"/>
																				</Node>
																				<Node score="0" recordCount="7">
																					<True/>
																					<ScoreDistribution value="0" recordCount="7"/>
																					<ScoreDistribution value="1" recordCount="0"/>
																				</Node>
																			</Node>
																			<Node score="0" recordCount="1">
																				<SimplePredicate field="double(x1)" operator="lessOrEqual" value="-0.8490804433822632"/>
																				<ScoreDistribution value="0" recordCount="1"/>
																				<ScoreDistribution value="1" recordCount="0"/>
																			</Node>
																			<Node score="1" recordCount="3">
																				<True/>
																				<ScoreDistribution value="0" recordCount="0"/>
																				<ScoreDistribution value="1" recordCount="3"/>
																			</Node>
																		</Node>
																		<Node score="0" recordCount="22">
																			<SimplePredicate field="double(x3)" operator="lessOrEqual" value="0.0013276709910314821"/>
																			<ScoreDistribution value="0" recordCount="22"/>
																			<ScoreDistribution value="1" recordCount="0"/>
																		</Node>
																		<Node score="1" recordCount="1">
																			<SimplePredicate field="double(x3)" operator="lessOrEqual" value="0.006699616205878556"/>
																			<ScoreDistribution value="0" recordCount="0"/>
																			<ScoreDistribution value="1" recordCount="1"/>
																		</Node>
																		<Node score="0" recordCount="12">
																			<SimplePredicate field="double(x1)" operator="lessOrEqual" value="-0.7391115725040436"/>
																			<ScoreDistribution value="0" recordCount="12"/>
																			<ScoreDistribution value="1" recordCount="0"/>
																		</Node>
																		<Node score="0" recordCount="1">
																			<SimplePredicate field="double(x3)" operator="lessOrEqual" value="0.11626550555229187"/>
																			<ScoreDistribution value="0" recordCount="1"/>
																			<ScoreDistribution value="1" recordCount="0"/>
																		</Node>
																		<Node score="1" recordCount="1">
																			<True/>
																			<ScoreDistribution value="0" recordCount="0"/>
																			<ScoreDistribution value="1" recordCount="1"/>
																		</Node>
																	</Node>
																	<Node score="1" recordCount="2">
																		<SimplePredicate field="double(x7)" operator="lessOrEqual" value="-0.37191246822476387"/>
																		<ScoreDistribution value="0" recordCount="0"/>
																		<ScoreDistribution value="1" recordCount="2"/>
																	</Node>
																	<Node score="0" recordCount="1">
																		<SimplePredicate field="double(x7)" operator="lessOrEqual" value="0.4557471089065075"/>
																		<ScoreDistribution value="0" recordCount="1"/>
																		<ScoreDistribution value="1" recordCount="0"/>
																	</Node>
																	<Node score="1" recordCount="1">
																		<True/>
																		<ScoreDistribution value="0" recordCount="0"/>
																		<ScoreDistribution value="1" recordCount="1"/>
																	</Node>
																</Node>
																<Node score="0" recordCount="27">
																	<True/>
																	<ScoreDistribution value="0" recordCount="27"/>
																	<ScoreDistribution value="1" recordCount="0"/>
																</Node>
															</Node>
															<Node score="0" recordCount="1">
																<SimplePredicate field="double(x13)" operator="lessOrEqual" value="-0.23790386319160461"/>
																<ScoreDistribution value="0" recordCount="1"/>
																<ScoreDistribution value="1" recordCount="0"/>
															</Node>
															<Node score="1" recordCount="1">
																<True/>
																<ScoreDistribution value="0" recordCount="0"/>
																<ScoreDistribution value="1" recordCount="1"/>
															</Node>
														</Node>
														<Node>
															<SimplePredicate field="double(x3)" operator="lessOrEqual" value="0.47890497744083405"/>
															<Node score="0" recordCount="51">
																<SimplePredicate field="double(x7)" operator="lessOrEqual" value="1.519880771636963"/>
																<ScoreDistribution value="0" recordCount="51"/>
																<ScoreDistribution value="1" recordCount="0"/>
															</Node>
															<Node score="1" recordCount="1">
																<SimplePredicate field="double(x13)" operator="lessOrEqual" value="0.5719937831163406"/>
																<ScoreDistribution value="0" recordCount="0"/>
																<ScoreDistribution value="1" recordCount="1"/>
															</Node>
															<Node score="0" recordCount="11">
																<True/>
																<ScoreDistribution value="0" recordCount="11"/>
																<ScoreDistribution value="1" recordCount="0"/>
															</Node>
														</Node>
														<Node score="0" recordCount="5">
															<SimplePredicate field="double(x1)" operator="lessOrEqual" value="-0.7757678627967834"/>
															<ScoreDistribution value="0" recordCount="5"/>
															<ScoreDistribution value="1" recordCount="0"/>
														</Node>
														<Node score="1" recordCount="1">
															<True/>
															<ScoreDistribution value="0" recordCount="0"/>
															<ScoreDistribution value="1" recordCount="1"/>
														</Node>
													</Node>
													<Node score="1" recordCount="3">
														<SimplePredicate field="double(x3)" operator="lessOrEqual" value="0.7310785055160522"/>
														<ScoreDistribution value="0" recordCount="0"/>
														<ScoreDistribution value="1" recordCount="3"/>
													</Node>
													<Node score="0" recordCount="7">
														<True/>
														<ScoreDistribution value="0" recordCount="7"/>
														<ScoreDistribution value="1" recordCount="0"/>
													</Node>
												</Node>
												<Node score="1" recordCount="2">
													<True/>
													<ScoreDistribution value="0" recordCount="0"/>
													<ScoreDistribution value="1" recordCount="2"/>
												</Node>
											</Node>
											<Node score="0" recordCount="36">
												<True/>
												<ScoreDistribution value="0" recordCount="36"/>
												<ScoreDistribution value="1" recordCount="0"/>
											</Node>
										</Node>
										<Node>
											<SimplePredicate field="double(x13)" operator="lessOrEqual" value="1.3818914294242859"/>
											<Node score="1" recordCount="1">
												<SimplePredicate field="double(x9)" operator="lessOrEqual" value="-1.3735487163066864"/>
												<ScoreDistribution value="0" recordCount="0"/>
												<ScoreDistribution value="1" recordCount="1"/>
											</Node>
											<Node>
												<SimplePredicate field="double(x13)" operator="lessOrEqual" value="0.24803473055362701"/>
												<Node score="0" recordCount="24">
													<SimplePredicate field="double(x3)" operator="lessOrEqual" value="0.44006022810935974"/>
													<ScoreDistribution value="0" recordCount="24"/>
													<ScoreDistribution value="1" recordCount="0"/>
												</Node>
												<Node score="0" recordCount="6">
													<SimplePredicate field="double(x1)" operator="lessOrEqual" value="-0.7391115725040436"/>
													<ScoreDistribution value="0" recordCount="6"/>
													<ScoreDistribution value="1" recordCount="0"/>
												</Node>
												<Node score="1" recordCount="1">
													<True/>
													<ScoreDistribution value="0" recordCount="0"/>
													<ScoreDistribution value="1" recordCount="1"/>
												</Node>
											</Node>
											<Node>
												<SimplePredicate field="double(x2)" operator="lessOrEqual" value="1.8071571588516235"/>
												<Node>
													<SimplePredicate field="double(x2)" operator="lessOrEqual" value="1.1203144788742065"/>
													<Node score="0" recordCount="1">
														<SimplePredicate field="double(x7)" operator="lessOrEqual" value="-0.7266237139701843"/>
														<ScoreDistribution value="0" recordCount="1"/>
														<ScoreDistribution value="1" recordCount="0"/>
													</Node>
													<Node score="1" recordCount="1">
														<True/>
														<ScoreDistribution value="0" recordCount="0"/>
														<ScoreDistribution value="1" recordCount="1"/>
													</Node>
												</Node>
												<Node score="0" recordCount="5">
													<True/>
													<ScoreDistribution value="0" recordCount="5"/>
													<ScoreDistribution value="1" recordCount="0"/>
												</Node>
											</Node>
											<Node score="1" recordCount="1">
												<True/>
												<ScoreDistribution value="0" recordCount="0"/>
												<ScoreDistribution value="1" recordCount="1"/>
											</Node>
										</Node>
										<Node score="0" recordCount="2">
											<SimplePredicate field="double(x7)" operator="lessOrEqual" value="-0.7266237139701843"/>
											<ScoreDistribution value="0" recordCount="2"/>
											<ScoreDistribution value="1" recordCount="0"/>
										</Node>
										<Node score="1" recordCount="5">
											<SimplePredicate field="double(x12)" operator="lessOrEqual" value="1.7351759746670723"/>
											<ScoreDistribution value="0" recordCount="0"/>
											<ScoreDistribution value="1" recordCount="5"/>
										</Node>
										<Node score="0" recordCount="1">
											<True/>
											<ScoreDistribution value="0" recordCount="1"/>
											<ScoreDistribution value="1" recordCount="0"/>
										</Node>
									</Node>
									<Node score="1" recordCount="3">
										<SimplePredicate field="double(x12)" operator="lessOrEqual" value="4.4848692417144775"/>
										<ScoreDistribution value="0" recordCount="0"/>
										<ScoreDistribution value="1" recordCount="3"/>
									</Node>
									<Node score="0" recordCount="2">
										<True/>
										<ScoreDistribution value="0" recordCount="2"/>
										<ScoreDistribution value="1" recordCount="0"/>
									</Node>
								</Node>
								<Node score="0" recordCount="30">
									<SimplePredicate field="double(x13)" operator="lessOrEqual" value="-0.6428526788949966"/>
									<ScoreDistribution value="0" recordCount="30"/>
									<ScoreDistribution value="1" recordCount="0"/>
								</Node>
								<Node>
									<SimplePredicate field="double(x7)" operator="lessOrEqual" value="1.401643693447113"/>
									<Node>
										<SimplePredicate field="double(x1)" operator="lessOrEqual" value="-1.032361924648285"/>
										<Node>
											<SimplePredicate field="double(x3)" operator="lessOrEqual" value="2.458206295967102"/>
											<Node>
												<SimplePredicate field="double(x13)" operator="lessOrEqual" value="2.272778809070587"/>
												<Node>
													<SimplePredicate field="double(x3)" operator="lessOrEqual" value="-1.4021901488304138"/>
													<Node score="0" recordCount="2">
														<SimplePredicate field="double(x13)" operator="lessOrEqual" value="0.5719937831163406"/>
														<ScoreDistribution value="0" recordCount="2"/>
														<ScoreDistribution value="1" recordCount="0"/>
													</Node>
													<Node score="1" recordCount="1">
														<True/>
														<ScoreDistribution value="0" recordCount="0"/>
														<ScoreDistribution value="1" recordCount="1"/>
													</Node>
												</Node>
												<Node score="0" recordCount="44">
													<SimplePredicate field="double(x3)" operator="lessOrEqual" value="1.7949984073638916"/>
													<ScoreDistribution value="0" recordCount="44"/>
													<ScoreDistribution value="1" recordCount="0"/>
												</Node>
												<Node score="1" recordCount="1">
													<SimplePredicate field="double(x7)" operator="lessOrEqual" value="-0.7266237065196037"/>
													<ScoreDistribution value="0" recordCount="0"/>
													<ScoreDistribution value="1" recordCount="1"/>
												</Node>
												<Node score="0" recordCount="3">
													<True/>
													<ScoreDistribution value="0" recordCount="3"/>
													<ScoreDistribution value="1" recordCount="0"/>
												</Node>
											</Node>
											<Node score="1" recordCount="1">
												<True/>
												<ScoreDistribution value="0" recordCount="0"/>
												<ScoreDistribution value="1" recordCount="1"/>
											</Node>
										</Node>
										<Node score="1" recordCount="1">
											<True/>
											<ScoreDistribution value="0" recordCount="0"/>
											<ScoreDistribution value="1" recordCount="1"/>
										</Node>
									</Node>
									<Node>
										<SimplePredicate field="double(x3)" operator="lessOrEqual" value="-0.012334313709288836"/>
										<Node score="1" recordCount="1">
											<SimplePredicate field="double(x3)" operator="lessOrEqual" value="-1.534565508365631"/>
											<ScoreDistribution value="0" recordCount="0"/>
											<ScoreDistribution value="1" recordCount="1"/>
										</Node>
										<Node>
											<SimplePredicate field="double(x13)" operator="lessOrEqual" value="0.6934784352779388"/>
											<Node score="1" recordCount="1">
												<SimplePredicate field="double(x2)" operator="lessOrEqual" value="-1.627056360244751"/>
												<ScoreDistribution value="0" recordCount="0"/>
												<ScoreDistribution value="1" recordCount="1"/>
											</Node>
											<Node>
												<SimplePredicate field="double(x7)" operator="lessOrEqual" value="-0.017201226204633713"/>
												<Node>
													<SimplePredicate field="double(x1)" operator="lessOrEqual" value="-0.7391115725040436"/>
													<Node score="0" recordCount="7">
														<SimplePredicate field="double(x1)" operator="lessOrEqual" value="-0.9590493142604828"/>
														<ScoreDistribution value="0" recordCount="7"/>
														<ScoreDistribution value="1" recordCount="0"/>
													</Node>
													<Node>
														<SimplePredicate field="double(x3)" operator="lessOrEqual" value="-1.457098662853241"/>
														<Node score="0" recordCount="1">
															<SimplePredicate field="double(x3)" operator="lessOrEqual" value="-1.4820966720581055"/>
															<ScoreDistribution value="0" recordCount="1"/>
															<ScoreDistribution value="1" recordCount="0"/>
														</Node>
														<Node score="1" recordCount="1">
															<True/>
															<ScoreDistribution value="0" recordCount="0"/>
															<ScoreDistribution value="1" recordCount="1"/>
														</Node>
													</Node>
													<Node score="0" recordCount="5">
														<SimplePredicate field="double(x3)" operator="lessOrEqual" value="-0.9106808304786682"/>
														<ScoreDistribution value="0" recordCount="5"/>
														<ScoreDistribution value="1" recordCount="0"/>
													</Node>
													<Node score="1" recordCount="1">
														<SimplePredicate field="double(x3)" operator="lessOrEqual" value="-0.8357672989368439"/>
														<ScoreDistribution value="0" recordCount="0"/>
														<ScoreDistribution value="1" recordCount="1"/>
													</Node>
													<Node>
														<SimplePredicate field="double(x13)" operator="lessOrEqual" value="0.1670449674129486"/>
														<Node>
															<SimplePredicate field="double(x3)" operator="lessOrEqual" value="-0.4934171140193939"/>
															<Node>
																<SimplePredicate field="double(x1)" operator="lessOrEqual" value="-0.8124241530895233"/>
																<Node>
																	<SimplePredicate field="double(x7)" operator="lessOrEqual" value="-1.0813349485397339"/>
																	<Node>
																		<SimplePredicate field="double(x12)" operator="lessOrEqual" value="2.3282957151532173"/>
																		<Node score="0" recordCount="1">
																			<SimplePredicate field="double(x3)" operator="lessOrEqual" value="-0.798471599817276"/>
																			<ScoreDistribution value="0" recordCount="1"/>
																			<ScoreDistribution value="1" recordCount="0"/>
																		</Node>
																		<Node score="1" recordCount="1">
																			<True/>
																			<ScoreDistribution value="0" recordCount="0"/>
																			<ScoreDistribution value="1" recordCount="1"/>
																		</Node>
																	</Node>
																	<Node score="0" recordCount="1">
																		<True/>
																		<ScoreDistribution value="0" recordCount="1"/>
																		<ScoreDistribution value="1" recordCount="0"/>
																	</Node>
																</Node>
																<Node score="0" recordCount="4">
																	<True/>
																	<ScoreDistribution value="0" recordCount="4"/>
																	<ScoreDistribution value="1" recordCount="0"/>
																</Node>
															</Node>
															<Node score="1" recordCount="1">
																<True/>
																<ScoreDistribution value="0" recordCount="0"/>
																<ScoreDistribution value="1" recordCount="1"/>
															</Node>
														</Node>
														<Node score="0" recordCount="5">
															<True/>
															<ScoreDistribution value="0" recordCount="5"/>
															<ScoreDistribution value="1" recordCount="0"/>
														</Node>
													</Node>
													<Node score="1" recordCount="1">
														<True/>
														<ScoreDistribution value="0" recordCount="0"/>
														<ScoreDistribution value="1" recordCount="1"/>
													</Node>
												</Node>
												<Node score="0" recordCount="10">
													<True/>
													<ScoreDistribution value="0" recordCount="10"/>
													<ScoreDistribution value="1" recordCount="0"/>
												</Node>
											</Node>
											<Node score="0" recordCount="24">
												<True/>
												<ScoreDistribution value="0" recordCount="24"/>
												<ScoreDistribution value="1" recordCount="0"/>
											</Node>
										</Node>
										<Node>
											<SimplePredicate field="double(x12)" operator="lessOrEqual" value="2.1434111669659615"/>
											<Node>
												<SimplePredicate field="double(x13)" operator="lessOrEqual" value="0.9769425988197327"/>
												<Node score="1" recordCount="1">
													<SimplePredicate field="double(x3)" operator="lessOrEqual" value="-1.428476631641388"/>
													<ScoreDistribution value="0" recordCount="0"/>
													<ScoreDistribution value="1" recordCount="1"/>
												</Node>
												<Node>
													<SimplePredicate field="double(x7)" operator="lessOrEqual" value="0.21927295625209808"/>
													<Node>
														<SimplePredicate field="double(x3)" operator="lessOrEqual" value="-0.7905178964138031"/>
														<Node score="0" recordCount="1">
															<SimplePredicate field="double(x1)" operator="lessOrEqual" value="-0.8490804433822632"/>
															<ScoreDistribution value="0" recordCount="1"/>
															<ScoreDistribution value="1" recordCount="0"/>
														</Node>
														<Node score="1" recordCount="1">
															<True/>
															<ScoreDistribution value="0" recordCount="0"/>
															<ScoreDistribution value="1" recordCount="1"/>
														</Node>
													</Node>
													<Node score="0" recordCount="5">
														<True/>
														<ScoreDistribution value="0" recordCount="5"/>
														<ScoreDistribution value="1" recordCount="0"/>
													</Node>
												</Node>
												<Node score="0" recordCount="1">
													<SimplePredicate field="double(x14)" operator="lessOrEqual" value="-1.4978748261928558"/>
													<ScoreDistribution value="0" recordCount="1"/>
													<ScoreDistribution value="1" recordCount="0"/>
												</Node>
												<Node score="1" recordCount="2">
													<SimplePredicate field="double(x3)" operator="lessOrEqual" value="-0.3000744581222534"/>
													<ScoreDistribution value="0" recordCount="0"/>
													<ScoreDistribution value="1" recordCount="2"/>
												</Node>
												<Node>
													<SimplePredicate field="double(x2)" operator="lessOrEqual" value="0.7768931165337563"/>
													<Node score="0" recordCount="1">
														<SimplePredicate field="double(x7)" operator="lessOrEqual" value="1.0469324886798859"/>
														<ScoreDistribution value="0" recordCount="1"/>
														<ScoreDistribution value="1" recordCount="0"/>
													</Node>
													<Node score="1" recordCount="1">
														<True/>
														<ScoreDistribution value="0" recordCount="0"/>
														<ScoreDistribution value="1" recordCount="1"/>
													</Node>
												</Node>
												<Node score="0" recordCount="1">
													<True/>
													<ScoreDistribution value="0" recordCount="1"/>
													<ScoreDistribution value="1" recordCount="0"/>
												</Node>
											</Node>
											<Node>
												<SimplePredicate field="double(x4)" operator="lessOrEqual" value="0.31052377820014954"/>
												<Node>
													<SimplePredicate field="double(x1)" operator="lessOrEqual" value="-0.7391115725040436"/>
													<Node>
														<SimplePredicate field="double(x7)" operator="lessOrEqual" value="-0.7266237139701843"/>
														<Node score="1" recordCount="1">
															<SimplePredicate field="double(x1)" operator="lessOrEqual" value="-0.8490804433822632"/>
															<ScoreDistribution value="0" recordCount="0"/>
															<ScoreDistribution value="1" recordCount="1"/>
														</Node>
														<Node score="0" recordCount="1">
															<True/>
															<ScoreDistribution value="0" recordCount="1"/>
															<ScoreDistribution value="1" recordCount="0"/>
														</Node>
													</Node>
													<Node score="0" recordCount="4">
														<True/>
														<ScoreDistribution value="0" recordCount="4"/>
														<ScoreDistribution value="1" recordCount="0"/>
													</Node>
												</Node>
												<Node score="1" recordCount="1">
													<True/>
													<ScoreDistribution value="0" recordCount="0"/>
													<ScoreDistribution value="1" recordCount="1"/>
												</Node>
											</Node>
											<Node>
												<SimplePredicate field="double(x2)" operator="lessOrEqual" value="-0.5967923030257225"/>
												<Node score="1" recordCount="1">
													<SimplePredicate field="double(x1)" operator="lessOrEqual" value="-0.885736733675003"/>
													<ScoreDistribution value="0" recordCount="0"/>
													<ScoreDistribution value="1" recordCount="1"/>
												</Node>
												<Node score="0" recordCount="1">
													<True/>
													<ScoreDistribution value="0" recordCount="1"/>
													<ScoreDistribution value="1" recordCount="0"/>
												</Node>
											</Node>
											<Node score="0" recordCount="18">
												<True/>
												<ScoreDistribution value="0" recordCount="18"/>
												<ScoreDistribution value="1" recordCount="0"/>
											</Node>
										</Node>
										<Node score="1" recordCount="1">
											<True/>
											<ScoreDistribution value="0" recordCount="0"/>
											<ScoreDistribution value="1" recordCount="1"/>
										</Node>
									</Node>
									<Node>
										<SimplePredicate field="double(x12)" operator="lessOrEqual" value="1.6259824112057686"/>
										<Node>
											<SimplePredicate field="double(x3)" operator="lessOrEqual" value="1.4183132648468018"/>
											<Node>
												<SimplePredicate field="double(x3)" operator="lessOrEqual" value="1.40373694896698"/>
												<Node>
													<SimplePredicate field="double(x14)" operator="lessOrEqual" value="-1.5617835521697998"/>
													<Node>
														<SimplePredicate field="double(x14)" operator="lessOrEqual" value="-3.4790443181991577"/>
														<Node score="1" recordCount="1">
															<SimplePredicate field="double(x9)" operator="lessOrEqual" value="-2.551692843437195"/>
															<ScoreDistribution value="0" recordCount="0"/>
															<ScoreDistribution value="1" recordCount="1"/>
														</Node>
														<Node score="0" recordCount="3">
															<True/>
															<ScoreDistribution value="0" recordCount="3"/>
															<ScoreDistribution value="1" recordCount="0"/>
														</Node>
													</Node>
													<Node score="1" recordCount="3">
														<True/>
														<ScoreDistribution value="0" recordCount="0"/>
														<ScoreDistribution value="1" recordCount="3"/>
													</Node>
												</Node>
												<Node score="1" recordCount="1">
													<SimplePredicate field="double(x6)" operator="lessOrEqual" value="-0.7381737232208252"/>
													<ScoreDistribution value="0" recordCount="0"/>
													<ScoreDistribution value="1" recordCount="1"/>
												</Node>
												<Node>
													<SimplePredicate field="double(x11)" operator="lessOrEqual" value="0.255694717168808"/>
													<Node>
														<SimplePredicate field="double(x13)" operator="lessOrEqual" value="0.3290244936943054"/>
														<Node>
															<SimplePredicate field="double(x13)" operator="lessOrEqual" value="0.1265500783920288"/>
															<Node>
																<SimplePredicate field="double(x3)" operator="lessOrEqual" value="1.0136456489562988"/>
																<Node>
																	<SimplePredicate field="double(x2)" operator="lessOrEqual" value="1.8071571588516235"/>
																	<Node>
																		<SimplePredicate field="double(x3)" operator="lessOrEqual" value="0.5753205120563507"/>
																		<Node>
																			<SimplePredicate field="double(x3)" operator="lessOrEqual" value="0.568565309047699"/>
																			<Node>
																				<SimplePredicate field="double(x3)" operator="lessOrEqual" value="0.21484117954969406"/>
																				<Node score="1" recordCount="1">
																					<SimplePredicate field="double(x13)" operator="lessOrEqual" value="-0.318893626332283"/>
																					<ScoreDistribution value="0" recordCount="0"/>
																					<ScoreDistribution value="1" recordCount="1"/>
																				</Node>
																				<Node>
																					<SimplePredicate field="double(x3)" operator="lessOrEqual" value="0.05084052216261625"/>
																					<Node score="0" recordCount="2">
																						<SimplePredicate field="double(x1)" operator="lessOrEqual" value="-0.8124241530895233"/>
																						<ScoreDistribution value="0" recordCount="2"/>
																						<ScoreDistribution value="1" recordCount="0"/>
																					</Node>
																					<Node score="1" recordCount="1">
																						<True/>
																						<ScoreDistribution value="0" recordCount="0"/>
																						<ScoreDistribution value="1" recordCount="1"/>
																					</Node>
																				</Node>
																				<Node score="0" recordCount="12">
																					<True/>
																					<ScoreDistribution value="0" recordCount="12"/>
																					<ScoreDistribution value="1" recordCount="0"/>
																				</Node>
																			</Node>
																			<Node score="1" recordCount="1">
																				<SimplePredicate field="double(x3)" operator="lessOrEqual" value="0.22492186725139618"/>
																				<ScoreDistribution value="0" recordCount="0"/>
																				<ScoreDistribution value="1" recordCount="1"/>
																			</Node>
																			<Node score="0" recordCount="3">
																				<SimplePredicate field="double(x3)" operator="lessOrEqual" value="0.30459626019001007"/>
																				<ScoreDistribution value="0" recordCount="3"/>
																				<ScoreDistribution value="1" recordCount="0"/>
																			</Node>
																			<Node score="1" recordCount="1">
																				<SimplePredicate field="double(x3)" operator="lessOrEqual" value="0.31476694345474243"/>
																				<ScoreDistribution value="0" recordCount="0"/>
																				<ScoreDistribution value="1" recordCount="1"/>
																			</Node>
																			<Node score="0" recordCount="3">
																				<SimplePredicate field="double(x1)" operator="lessOrEqual" value="-0.885736733675003"/>
																				<ScoreDistribution value="0" recordCount="3"/>
																				<ScoreDistribution value="1" recordCount="0"/>
																			</Node>
																			<Node>
																				<SimplePredicate field="double(x3)" operator="lessOrEqual" value="0.48357582092285156"/>
																				<Node score="0" recordCount="1">
																					<SimplePredicate field="double(x13)" operator="lessOrEqual" value="-0.23790386319160461"/>
																					<ScoreDistribution value="0" recordCount="1"/>
																					<ScoreDistribution value="1" recordCount="0"/>
																				</Node>
																				<Node score="1" recordCount="2">
																					<True/>
																					<ScoreDistribution value="0" recordCount="0"/>
																					<ScoreDistribution value="1" recordCount="2"/>
																				</Node>
																			</Node>
																			<Node score="0" recordCount="2">
																				<True/>
																				<ScoreDistribution value="0" recordCount="2"/>
																				<ScoreDistribution value="1" recordCount="0"/>
																			</Node>
																		</Node>
																		<Node score="1" recordCount="1">
																			<True/>
																			<ScoreDistribution value="0" recordCount="0"/>
																			<ScoreDistribution value="1" recordCount="1"/>
																		</Node>
																	</Node>
																	<Node score="0" recordCount="9">
																		<True/>
																		<ScoreDistribution value="0" recordCount="9"/>
																		<ScoreDistribution value="1" recordCount="0"/>
																	</Node>
																</Node>
																<Node score="0" recordCount="1">
																	<SimplePredicate field="double(x1)" operator="lessOrEqual" value="-0.885736733675003"/>
																	<ScoreDistribution value="0" recordCount="1"/>
																	<ScoreDistribution value="1" recordCount="0"/>
																</Node>
																<Node score="1" recordCount="2">
																	<True/>
																	<ScoreDistribution value="0" recordCount="0"/>
																	<ScoreDistribution value="1" recordCount="2"/>
																</Node>
															</Node>
															<Node score="0" recordCount="2">
																<SimplePredicate field="double(x14)" operator="lessOrEqual" value="0.03593380004167557"/>
